{"learner":{"attributes":{"scikit_learn":"{\"_estimator_type\": \"classifier\"}"},"feature_names":[],"feature_types":[],"gradient_booster":{"model":{"cats":{"enc":[],"feature_segments":[],"sorted_idx":[]},"gbtree_model_param":{"num_parallel_tree":"1","num_trees":"900"},"iteration_indptr":[0,3,6,9,12,15,18,21,24,27,30,33,36,39,42,45,48,51,54,57,60,63,66,69,72,75,78,81,84,87,90,93,96,99,102,105,108,111,114,117,120,123,126,129,132,135,138,141,144,147,150,153,156,159,162,165,168,171,174,177,180,183,186,189,192,195,198,201,204,207,210,213,216,219,222,225,228,231,234,237,240,243,246,249,252,255,258,261,264,267,270,273,276,279,282,285,288,291,294,297,300,303,306,309,312,315,318,321,324,327,330,333,336,339,342,345,348,351,354,357,360,363,366,369,372,375,378,381,384,387,390,393,396,399,402,405,408,411,414,417,420,423,426,429,432,435,438,441,444,447,450,453,456,459,462,465,468,471,474,477,480,483,486,489,492,495,498,501,504,507,510,513,516,519,522,525,528,531,534,537,540,543,546,549,552,555,558,561,564,567,570,573,576,579,582,585,588,591,594,597,600,603,606,609,612,615,618,621,624,627,630,633,636,639,642,645,648,651,654,657,660,663,666,669,672,675,678,681,684,687,690,693,696,699,702,705,708,711,714,717,720,723,726,729,732,735,738,741,744,747,750,753,756,759,762,765,768,771,774,777,780,783,786,789,792,795,798,801,804,807,810,813,816,819,822,825,828,831,834,837,840,843,846,849,852,855,858,861,864,867,870,873,876,879,882,885,888,891,894,897,900],"tree_info":[0,1,2,0,1,2,0,1,2,0,1,2,0,1,2,0,1,2,0,1,2,0,1,2,0,1,2,0,1,2,0,1,2,0,1,2,0,1,2,0,1,2,0,1,2,0,1,2,0,1,2,0,1,2,0,1,2,0,1,2,0,1,2,0,1,2,0,1,2,0,1,2,0,1,2,0,1,2,0,1,2,0,1,2,0,1,2,0,1,2,0,1,2,0,1,2,0,1,2,0,1,2,0,1,2,0,1,2,0,1,2,0,1,2,0,1,2,0,1,2,0,1,2,0,1,2,0,1,2,0,1,2,0,1,2,0,1,2,0,1,2,0,1,2,0,1,2,0,1,2,0,1,2,0,1,2,0,1,2,0,1,2,0,1,2,0,1,2,0,1,2,0,1,2,0,1,2,0,1,2,0,1,2,0,1,2,0,1,2,0,1,2,0,1,2,0,1,2,0,1,2,0,1,2,0,1,2,0,1,2,0,1,2,0,1,2,0,1,2,0,1,2,0,1,2,0,1,2,0,1,2,0,1,2,0,1,2,0,1,2,0,1,2,0,1,2,0,1,2,0,1,2,0,1,2,0,1,2,0,1,2,0,1,2,0,1,2,0,1,2,0,1,2,0,1,2,0,1,2,0,1,2,0,1,2,0,1,2,0,1,2,0,1,2,0,1,2,0,1,2,0,1,2,0,1,2,0,1,2,0,1,2,0,1,2,0,1,2,0,1,2,0,1,2,0,1,2,0,1,2,0,1,2,0,1,2,0,1,2,0,1,2,0,1,2,0,1,2,0,1,2,0,1,2,0,1,2,0,1,2,0,1,2,0,1,2,0,1,2,0,1,2,0,1,2,0,1,2,0,1,2,0,1,2,0,1,2,0,1,2,0,1,2,0,1,2,0,1,2,0,1,2,0,1,2,0,1,2,0,1,2,0,1,2,0,1,2,0,1,2,0,1,2,0,1,2,0,1,2,0,1,2,0,1,2,0,1,2,0,1,2,0,1,2,0,1,2,0,1,2,0,1,2,0,1,2,0,1,2,0,1,2,0,1,2,0,1,2,0,1,2,0,1,2,0,1,2,0,1,2,0,1,2,0,1,2,0,1,2,0,1,2,0,1,2,0,1,2,0,1,2,0,1,2,0,1,2,0,1,2,0,1,2,0,1,2,0,1,2,0,1,2,0,1,2,0,1,2,0,1,2,0,1,2,0,1,2,0,1,2,0,1,2,0,1,2,0,1,2,0,1,2,0,1,2,0,1,2,0,1,2,0,1,2,0,1,2,0,1,2,0,1,2,0,1,2,0,1,2,0,1,2,0,1,2,0,1,2,0,1,2,0,1,2,0,1,2,0,1,2,0,1,2,0,1,2,0,1,2,0,1,2,0,1,2,0,1,2,0,1,2,0,1,2,0,1,2,0,1,2,0,1,2,0,1,2,0,1,2,0,1,2,0,1,2,0,1,2,0,1,2,0,1,2,0,1,2,0,1,2,0,1,2,0,1,2,0,1,2,0,1,2,0,1,2,0,1,2,0,1,2,0,1,2,0,1,2,0,1,2,0,1,2,0,1,2,0,1,2,0,1,2,0,1,2,0,1,2,0,1,2,0,1,2,0,1,2,0,1,2,0,1,2,0,1,2,0,1,2,0,1,2,0,1,2,0,1,2,0,1,2,0,1,2,0,1,2,0,1,2,0,1,2,0,1,2,0,1,2,0,1,2,0,1,2,0,1,2,0,1,2,0,1,2,0,1,2,0,1,2,0,1,2,0,1,2,0,1,2,0,1,2,0,1,2,0,1,2,0,1,2,0,1,2,0,1,2,0,1,2,0,1,2,0,1,2,0,1,2,0,1,2,0,1,2,0,1,2,0,1,2,0,1,2,0,1,2,0,1,2,0,1,2,0,1,2,0,1,2,0,1,2,0,1,2,0,1,2,0,1,2,0,1,2,0,1,2,0,1,2,0,1,2,0,1,2,0,1,2,0,1,2,0,1,2,0,1,2,0,1,2,0,1,2,0,1,2,0,1,2],"trees":[{"base_weights":[-2.5830055E-3,5.004807E-1,-3.0915678E-1,9.3879026E-1,3.1339523E-1,-1.3024175E-1,-4.807863E-1,1.3337834E0,7.5749063E-1,5.155786E-1,2.1818103E-1,-4.7662817E-2,-2.1709129E-1,-3.8198587E-1,-5.557106E-1,7.853689E-2,6.0482502E-2,3.607778E-2,6.1822265E-2,2.4791041E-2,6.370058E-2,1.0037127E-2,3.2620467E-2,-9.188356E-4,-9.305886E-3,2.2098113E-2,-1.1084394E-2,-1.2456625E-2,-2.008891E-2,-2.493256E-2,-3.1477563E-2],"categories":[],"categories_nodes":[],"categories_segments":[],"categories_sizes":[],"default_left":[0,0,0,0,0,0,0,0,0,0,0,0,0,0,0,0,0,0,0,0,0,0,0,0,0,0,0,0,0,0,0],"id":0,"left_children":[1,3,5,7,9,11,13,15,17,19,21,23,25,27,29,-1,-1,-1,-1,-1,-1,-1,-1,-1,-1,-1,-1,-1,-1,-1,-1],"loss_changes":[2.2854058E3,4.5982556E2,2.8267035E2,1.1915857E2,7.562128E1,3.233078E1,3.4572388E1,1.3589233E1,1.8943115E1,1.8231262E1,2.0134605E1,9.374577E0,6.75531E0,5.237213E0,1.0936584E1,0E0,0E0,0E0,0E0,0E0,0E0,0E0,0E0,0E0,0E0,0E0,0E0,0E0,0E0,0E0,0E0],"parents":[2147483647,0,0,1,1,2,2,3,3,4,4,5,5,6,6,7,7,8,8,9,9,10,10,11,11,12,12,13,13,14,14],"right_children":[2,4,6,8,10,12,14,16,18,20,22,24,26,28,30,-1,-1,-1,-1,-1,-1,-1,-1,-1,-1,-1,-1,-1,-1,-1,-1],"split_conditions":[-5.318346E1,-2.5061938E2,1.0975973E2,-4.0575058E2,-1.6771516E2,2.9032774E1,2.0499872E2,-5.497959E2,4E0,4.5E0,3.8E0,6.544118E-1,5E-2,4.6551725E-1,3.2060345E2,7.853689E-2,6.0482502E-2,3.607778E-2,6.1822265E-2,2.4791041E-2,6.370058E-2,1.0037127E-2,3.2620467E-2,-9.188356E-4,-9.305886E-3,2.2098113E-2,-1.1084394E-2,-1.2456625E-2,-2.008891E-2,-2.493256E-2,-3.1477563E-2],"split_indices":[0,0,0,0,0,0,0,0,8,8,8,13,5,13,0,0,0,0,0,0,0,0,0,0,0,0,0,0,0,0,0],"split_type":[0,0,0,0,0,0,0,0,0,0,0,0,0,0,0,0,0,0,0,0,0,0,0,0,0,0,0,0,0,0,0],"sum_hessian":[1.4816534E4,5.6101245E3,9.20641E3,1.6770536E3,3.9330708E3,4.5083955E3,4.698014E3,5.255954E2,1.1514583E3,1.2577902E3,2.6752805E3,2.311811E3,2.1965845E3,2.0287982E3,2.669216E3,1.7668091E2,3.489145E2,1.0734275E3,7.80307E1,1.2274674E3,3.0322811E1,2.573396E3,1.0188464E2,1.9091241E3,4.0268692E2,1.4554949E1,2.1820295E3,2.648192E2,1.763979E3,1.5100759E3,1.15914E3],"tree_param":{"num_deleted":"0","num_feature":"15","num_nodes":"31","size_leaf_vector":"1"}},{"base_weights":[9.3215844E-4,-1.3862371E-1,8.753057E-2,-8.4604956E-2,-3.507403E-1,1.1473058E-1,-1.2099778E-1,-2.3531316E-1,-3.561951E-2,-2.2005972E-1,-4.3717492E-1,1.2993698E-1,-4.3647796E-2,-2.8632057E-1,-5.5130646E-3,-8.128037E-3,-1.9258935E-2,8.345443E-4,-9.087302E-3,2.9672496E-3,-1.7918523E-2,-2.4647504E-2,-1.0403625E-2,3.643607E-3,8.276139E-3,-3.3275348E-3,3.0041683E-2,-2.8127959E-2,-1.1314642E-2,3.7927896E-4,-2.9620633E-2],"categories":[],"categories_nodes":[],"categories_segments":[],"categories_sizes":[],"default_left":[0,0,0,0,0,0,0,0,0,0,0,0,0,0,0,0,0,0,0,0,0,0,0,0,0,0,0,0,0,0,0],"id":1,"left_children":[1,3,5,7,9,11,13,15,17,19,21,23,25,27,29,-1,-1,-1,-1,-1,-1,-1,-1,-1,-1,-1,-1,-1,-1,-1,-1],"loss_changes":[1.563441E2,5.673108E1,4.5293278E1,2.914909E1,1.1257355E1,1.7014458E1,1.7594276E1,1.0498699E1,2.2796331E1,1.5563036E1,7.615288E0,1.3073677E1,9.183052E0,6.1573753E0,4.183593E0,0E0,0E0,0E0,0E0,0E0,0E0,0E0,0E0,0E0,0E0,0E0,0E0,0E0,0E0,0E0,0E0],"parents":[2147483647,0,0,1,1,2,2,3,3,4,4,5,5,6,6,7,7,8,8,9,9,10,10,11,11,12,12,13,13,14,14],"right_children":[2,4,6,8,10,12,14,16,18,20,22,24,26,28,30,-1,-1,-1,-1,-1,-1,-1,-1,-1,-1,-1,-1,-1,-1,-1,-1],"split_conditions":[1.5205964E3,8.783784E-1,2.4E0,1E0,1.5663615E3,2.6666667E0,1.3810183E3,2.6E0,1.5891752E3,2E0,1.4531438E3,1.6545743E3,1.9949425E3,1.1447144E3,5.4E0,-8.128037E-3,-1.9258935E-2,8.345443E-4,-9.087302E-3,2.9672496E-3,-1.7918523E-2,-2.4647504E-2,-1.0403625E-2,3.643607E-3,8.276139E-3,-3.3275348E-3,3.0041683E-2,-2.8127959E-2,-1.1314642E-2,3.7927896E-4,-2.9620633E-2],"split_indices":[2,13,8,14,1,7,1,10,1,10,2,2,2,1,8,0,0,0,0,0,0,0,0,0,0,0,0,0,0,0,0],"split_type":[0,0,0,0,0,0,0,0,0,0,0,0,0,0,0,0,0,0,0,0,0,0,0,0,0,0,0,0,0,0,0],"sum_hessian":[1.2934696E4,4.9526904E3,7.982006E3,3.9485342E3,1.0041561E3,7.0613833E3,9.206227E2,9.676541E2,2.9808801E3,4.0117108E2,6.0298505E2,6.442955E3,6.184282E2,3.7800635E2,5.4261633E2,6.5282434E2,3.148298E2,2.195736E3,7.851441E2,1.3302173E2,2.6814935E2,4.8400256E2,1.189825E2,2.4758186E3,3.9671362E3,5.980713E2,2.0356888E1,6.598439E1,3.1202194E2,5.3173596E2,1.0880405E1],"tree_param":{"num_deleted":"0","num_feature":"15","num_nodes":"31","size_leaf_vector":"1"}},{"base_weights":[1.514178E-3,-3.538261E-1,3.6856794E-1,-6.1990124E-1,-1.8166642E-1,1.9400662E-1,6.091731E-1,-8.5147697E-1,-5.409889E-1,-2.8919584E-1,-9.9933065E-2,1.072139E-1,2.8411722E-1,5.0593925E-1,7.832458E-1,-4.2724684E-2,3.0502671E-2,-3.1506438E-2,-2.400139E-2,-1.7771631E-2,-1.160327E-2,-6.0606147E-3,6.16621E-3,3.732282E-3,1.4422948E-2,1.9432876E-2,9.6292505E-3,2.75123E-2,2.0476779E-2,3.9812714E-2,3.6292446E-3],"categories":[],"categories_nodes":[],"categories_segments":[],"categories_sizes":[],"default_left":[0,0,0,0,0,0,0,0,0,0,0,0,0,0,0,0,0,0,0,0,0,0,0,0,0,0,0,0,0,0,0],"id":2,"left_children":[1,3,5,7,9,11,13,15,17,19,21,23,25,27,29,-1,-1,-1,-1,-1,-1,-1,-1,-1,-1,-1,-1,-1,-1,-1,-1],"loss_changes":[2.3963645E3,4.275194E2,3.7946045E2,6.6550415E1,4.979834E1,4.094394E1,6.788074E1,4.6226807E0,1.4574646E1,9.18042E0,1.5324749E1,1.5740604E1,2.4514969E1,9.973938E0,1.300116E1,0E0,0E0,0E0,0E0,0E0,0E0,0E0,0E0,0E0,0E0,0E0,0E0,0E0,0E0,0E0,0E0],"parents":[2147483647,0,0,1,1,2,2,3,3,4,4,5,5,6,6,7,7,8,8,9,9,10,10,11,11,12,12,13,13,14,14],"right_children":[2,4,6,8,10,12,14,16,18,20,22,24,26,28,30,-1,-1,-1,-1,-1,-1,-1,-1,-1,-1,-1,-1,-1,-1,-1,-1],"split_conditions":[1.4151828E1,-1.6771516E2,1.8355977E2,-3.5912323E2,-8.001069E1,9.17816E1,3.2060345E2,4.2E0,1.1E1,3.888889E-1,2.5E0,2.25E0,1.5119706E3,1E1,5E1,-4.2724684E-2,3.0502671E-2,-3.1506438E-2,-2.400139E-2,-1.7771631E-2,-1.160327E-2,-6.0606147E-3,6.16621E-3,3.732282E-3,1.4422948E-2,1.9432876E-2,9.6292505E-3,2.75123E-2,2.0476779E-2,3.9812714E-2,3.6292446E-3],"split_indices":[0,0,0,0,0,0,0,10,11,13,10,10,2,14,14,0,0,0,0,0,0,0,0,0,0,0,0,0,0,0,0],"split_type":[0,0,0,0,0,0,0,0,0,0,0,0,0,0,0,0,0,0,0,0,0,0,0,0,0,0,0,0,0,0,0],"sum_hessian":[1.8370943E4,9.334431E3,9.036513E3,3.665991E3,5.66844E3,5.2380586E3,3.7984546E3,9.2924426E2,2.7367468E3,2.4468267E3,3.2216133E3,2.6692654E3,2.568793E3,2.386843E3,1.4116115E3,9.277447E2,1.4995873E0,1.1076952E3,1.6290516E3,1.1306888E3,1.3161378E3,2.9416904E3,2.7992297E2,2.263877E3,4.0538843E2,1.1976704E3,1.3711227E3,1.6320508E3,7.547923E2,1.3861185E3,2.5492985E1],"tree_param":{"num_deleted":"0","num_feature":"15","num_nodes":"31","size_leaf_vector":"1"}},{"base_weights":[2.165851E-3,4.727592E-1,-2.941254E-1,9.985902E-1,3.3378026E-1,-1.4061297E-1,-4.8264927E-1,1.3888631E0,8.671456E-1,5.184306E-1,2.0809169E-1,-3.7032932E-2,-2.3373863E-1,-4.3250284E-1,-6.1514527E-1,7.653671E-2,6.432991E-2,5.1223416E-2,3.7992004E-2,2.4313219E-2,5.462375E-2,8.686016E-3,2.085077E-2,-1.7022423E-4,-9.163264E-3,-1.1970927E-2,2.4957184E-2,-1.9427784E-2,-2.381163E-2,-3.100275E-2,5.084517E-3],"categories":[],"categories_nodes":[],"categories_segments":[],"categories_sizes":[],"default_left":[0,0,0,0,0,0,0,0,0,0,0,0,0,0,0,0,0,0,0,0,0,0,0,0,0,0,0,0,0,0,0],"id":3,"left_children":[1,3,5,7,9,11,13,15,17,19,21,23,25,27,29,-1,-1,-1,-1,-1,-1,-1,-1,-1,-1,-1,-1,-1,-1,-1,-1],"loss_changes":[2.0744663E3,4.1974048E2,2.6415332E2,6.0414307E1,1.0544461E2,4.8544685E1,2.695636E1,2.3970947E0,1.443512E1,3.3467987E1,1.9371712E1,1.1723837E1,1.1152069E1,5.5335083E0,4.013916E0,0E0,0E0,0E0,0E0,0E0,0E0,0E0,0E0,0E0,0E0,0E0,0E0,0E0,0E0,0E0,0E0],"parents":[2147483647,0,0,1,1,2,2,3,3,4,4,5,5,6,6,7,7,8,8,9,9,10,10,11,11,12,12,13,13,14,14],"right_children":[2,4,6,8,10,12,14,16,18,20,22,24,26,28,30,-1,-1,-1,-1,-1,-1,-1,-1,-1,-1,-1,-1,-1,-1,-1,-1],"split_conditions":[-5.318346E1,-2.9979437E2,1.3220535E2,-4.898871E2,-1.6771516E2,3.0952686E1,3.2060345E2,-6.035221E2,-3.801015E2,4E0,2.6E0,6.363636E-1,4.5E0,2.0499872E2,3E0,7.653671E-2,6.432991E-2,5.1223416E-2,3.7992004E-2,2.4313219E-2,5.462375E-2,8.686016E-3,2.085077E-2,-1.7022423E-4,-9.163264E-3,-1.1970927E-2,2.4957184E-2,-1.9427784E-2,-2.381163E-2,-3.100275E-2,5.084517E-3],"split_indices":[0,0,0,0,0,0,0,0,0,8,8,13,8,0,8,0,0,0,0,0,0,0,0,0,0,0,0,0,0,0,0],"split_type":[0,0,0,0,0,0,0,0,0,0,0,0,0,0,0,0,0,0,0,0,0,0,0,0,0,0,0,0,0,0,0],"sum_hessian":[1.4875908E4,5.7471816E3,9.128727E3,1.200159E3,4.5470225E3,5.032542E3,4.0961846E3,2.999649E2,9.001941E2,1.8402977E3,2.7067246E3,2.3831995E3,2.6493425E3,2.974627E3,1.1215577E3,1.1979965E2,1.8016527E2,3.6155872E2,5.386354E2,1.7443987E3,9.589912E1,2.3259065E3,3.808183E2,1.9384463E3,4.4475317E2,2.629636E3,1.9706573E1,1.4885562E3,1.4860708E3,1.1140623E3,7.495396E0],"tree_param":{"num_deleted":"0","num_feature":"15","num_nodes":"31","size_leaf_vector":"1"}},{"base_weights":[-4.613882E-4,6.3778095E-2,-2.51086E-1,9.542131E-2,-1.4041235E-1,-1.8626025E-1,-4.5179603E-1,2.0933626E-2,1.4412166E-1,-3.786851E-1,-9.138058E-2,-1.487391E-1,-2.9743922E-1,-5.02274E-1,-2.0389639E-1,-5.263407E-3,4.2870296E-3,8.511952E-3,1.8402757E-3,-1.1628346E-2,-2.8466215E-2,-1.0476322E-2,-2.411689E-3,-1.0603751E-2,-5.0701406E-3,-1.622679E-2,1.3755957E-3,-2.155753E-2,-2.9117962E-2,7.070338E-3,-1.3275288E-2],"categories":[],"categories_nodes":[],"categories_segments":[],"categories_sizes":[],"default_left":[0,0,0,0,0,0,0,0,0,0,0,0,0,0,0,0,0,0,0,0,0,0,0,0,0,0,0,0,0,0,0],"id":4,"left_children":[1,3,5,7,9,11,13,15,17,19,21,23,25,27,29,-1,-1,-1,-1,-1,-1,-1,-1,-1,-1,-1,-1,-1,-1,-1,-1],"loss_changes":[2.0783142E2,6.640332E1,3.4183243E1,3.227163E1,1.6077057E1,8.267265E0,7.934555E0,2.878566E1,1.5071655E1,6.414749E0,5.826867E0,4.45068E0,4.426811E0,2.7844238E0,2.3848758E0,0E0,0E0,0E0,0E0,0E0,0E0,0E0,0E0,0E0,0E0,0E0,0E0,0E0,0E0,0E0,0E0],"parents":[2147483647,0,0,1,1,2,2,3,3,4,4,5,5,6,6,7,7,8,8,9,9,10,10,11,11,12,12,13,13,14,14],"right_children":[2,4,6,8,10,12,14,16,18,20,22,24,26,28,30,-1,-1,-1,-1,-1,-1,-1,-1,-1,-1,-1,-1,-1,-1,-1,-1],"split_conditions":[1.8355977E2,2.5E0,3.757978E2,4E0,-3.801015E2,8.783784E-1,1.4784319E3,1.5227977E3,9.17816E1,3.5E0,4E0,5E0,1.6698698E3,9.6428573E-1,4E0,-5.263407E-3,4.2870296E-3,8.511952E-3,1.8402757E-3,-1.1628346E-2,-2.8466215E-2,-1.0476322E-2,-2.411689E-3,-1.0603751E-2,-5.0701406E-3,-1.622679E-2,1.3755957E-3,-2.155753E-2,-2.9117962E-2,7.070338E-3,-1.3275288E-2],"split_indices":[0,8,0,14,0,13,2,2,0,8,12,14,2,13,11,0,0,0,0,0,0,0,0,0,0,0,0,0,0,0,0],"split_type":[0,0,0,0,0,0,0,0,0,0,0,0,0,0,0,0,0,0,0,0,0,0,0,0,0,0,0,0,0,0,0],"sum_hessian":[1.2906792E4,1.02741045E4,2.6326877E3,8.896027E3,1.3780767E3,1.9914221E3,6.412656E2,3.517463E3,5.378565E3,2.3403697E2,1.1440397E3,1.4906793E3,5.007429E2,5.319271E2,1.0933849E2,1.193221E3,2.324242E3,4.325329E3,1.0532361E3,1.3374565E2,1.0029132E2,3.0500632E2,8.390334E2,6.3609906E2,8.545802E2,4.6220264E2,3.8540253E1,2.851078E2,2.4681937E2,1.63585E1,9.297999E1],"tree_param":{"num_deleted":"0","num_feature":"15","num_nodes":"31","size_leaf_vector":"1"}},{"base_weights":[-2.325528E-3,-3.5002553E-1,3.5454822E-1,-5.8624476E-1,-1.8444893E-1,1.8641692E-1,5.857169E-1,-7.705427E-1,-4.9222717E-1,-2.7510554E-1,-1.09951824E-1,1.0037882E-1,2.7401155E-1,5.108323E-1,7.9502046E-1,-4.2969566E-2,-3.399907E-2,-2.8181529E-2,-2.2106005E-2,-1.6547648E-2,-1.0256918E-2,2.9038955E-2,-5.955571E-3,4.4731554E-3,3.3895385E-2,1.5698072E-2,2.9431435E-3,2.3762394E-2,3.2895844E-2,4.217456E-2,2.8611874E-2],"categories":[],"categories_nodes":[],"categories_segments":[],"categories_sizes":[],"default_left":[0,0,0,0,0,0,0,0,0,0,0,0,0,0,0,0,0,0,0,0,0,0,0,0,0,0,0,0,0,0,0],"id":5,"left_children":[1,3,5,7,9,11,13,15,17,19,21,23,25,27,29,-1,-1,-1,-1,-1,-1,-1,-1,-1,-1,-1,-1,-1,-1,-1,-1],"loss_changes":[2.2791218E3,3.6376526E2,3.5218384E2,6.6042114E1,3.6918594E1,3.953157E1,5.9406372E1,9.820801E0,8.842651E0,9.572464E0,1.9079906E1,1.6642868E1,2.2332397E1,1.44122925E1,1.0356384E1,0E0,0E0,0E0,0E0,0E0,0E0,0E0,0E0,0E0,0E0,0E0,0E0,0E0,0E0,0E0,0E0],"parents":[2147483647,0,0,1,1,2,2,3,3,4,4,5,5,6,6,7,7,8,8,9,9,10,10,11,11,12,12,13,13,14,14],"right_children":[2,4,6,8,10,12,14,16,18,20,22,24,26,28,30,-1,-1,-1,-1,-1,-1,-1,-1,-1,-1,-1,-1,-1,-1,-1,-1],"split_conditions":[1.4151828E1,-1.6244142E2,1.8355977E2,-3.1451733E2,-7.3261246E1,9.17816E1,3.6711615E2,-4.0575058E2,1.1E1,4.716981E-1,1E-1,4.6666665E0,1.7214799E3,9.6428573E-1,1.4784319E3,-4.2969566E-2,-3.399907E-2,-2.8181529E-2,-2.2106005E-2,-1.6547648E-2,-1.0256918E-2,2.9038955E-2,-5.955571E-3,4.4731554E-3,3.3895385E-2,1.5698072E-2,2.9431435E-3,2.3762394E-2,3.2895844E-2,4.217456E-2,2.8611874E-2],"split_indices":[0,0,0,0,0,0,0,0,11,13,6,10,2,13,2,0,0,0,0,0,0,0,0,0,0,0,0,0,0,0,0],"split_type":[0,0,0,0,0,0,0,0,0,0,0,0,0,0,0,0,0,0,0,0,0,0,0,0,0,0,0,0,0,0,0],"sum_hessian":[1.8365422E4,9.302282E3,9.063141E3,3.8323438E3,5.4699385E3,5.2480137E3,3.8151267E3,1.2921708E3,2.540173E3,2.4661506E3,3.0037876E3,2.6486125E3,2.5994014E3,2.8123613E3,1.00276526E3,6.479677E2,6.442031E2,1.0432614E3,1.4969116E3,1.3693849E3,1.0967657E3,3.849437E1,2.9652932E3,2.600614E3,4.7998558E1,2.191933E3,4.074682E2,2.267912E3,5.444492E2,8.2129144E2,1.814738E2],"tree_param":{"num_deleted":"0","num_feature":"15","num_nodes":"31","size_leaf_vector":"1"}},{"base_weights":[-2.3223828E-3,4.353242E-1,-2.9252973E-1,9.538957E-1,3.162455E-1,-1.3469009E-1,-4.597476E-1,1.2506539E0,8.0585694E-1,4.8441607E-1,1.9484386E-1,-5.675867E-2,-2.1490328E-1,-4.0815783E-1,-6.086754E-1,6.288824E-2,-2.0702003E-2,3.620135E-2,4.714626E-2,2.2885777E-2,4.812692E-2,8.641501E-3,2.7638018E-2,-3.1397925E-3,3.5087727E-2,-1.0893135E-2,4.7649737E-2,-1.7103959E-2,-2.2315763E-2,-3.0563E-2,2.8107334E-2],"categories":[],"categories_nodes":[],"categories_segments":[],"categories_sizes":[],"default_left":[0,0,0,0,0,0,0,0,0,0,0,0,0,0,0,0,0,0,0,0,0,0,0,0,0,0,0,0,0,0,0],"id":6,"left_children":[1,3,5,7,9,11,13,15,17,19,21,23,25,27,29,-1,-1,-1,-1,-1,-1,-1,-1,-1,-1,-1,-1,-1,-1,-1,-1],"loss_changes":[1.8749304E3,3.6316138E2,2.3421588E2,4.7259216E1,9.7664E1,2.8540527E1,3.2863586E1,4.827942E0,7.570526E0,2.5178345E1,2.1828049E1,1.0659374E1,7.986E0,7.925659E0,3.69281E0,0E0,0E0,0E0,0E0,0E0,0E0,0E0,0E0,0E0,0E0,0E0,0E0,0E0,0E0,0E0,0E0],"parents":[2147483647,0,0,1,1,2,2,3,3,4,4,5,5,6,6,7,7,8,8,9,9,10,10,11,11,12,12,13,13,14,14],"right_children":[2,4,6,8,10,12,14,16,18,20,22,24,26,28,30,-1,-1,-1,-1,-1,-1,-1,-1,-1,-1,-1,-1,-1,-1,-1,-1],"split_conditions":[-4.8934895E1,-3.1451733E2,1.19612144E2,-4.6170975E2,-1.6771516E2,3.3108627E1,3.2060345E2,1.707099E3,2.25E0,4E0,3.25E0,4.75E0,6.25E0,1.7508337E2,3.5E0,6.288824E-2,-2.0702003E-2,3.620135E-2,4.714626E-2,2.2885777E-2,4.812692E-2,8.641501E-3,2.7638018E-2,-3.1397925E-3,3.5087727E-2,-1.0893135E-2,4.7649737E-2,-1.7103959E-2,-2.2315763E-2,-3.0563E-2,2.8107334E-2],"split_indices":[0,0,0,0,0,0,0,1,8,8,8,8,8,0,8,0,0,0,0,0,0,0,0,0,0,0,0,0,0,0,0],"split_type":[0,0,0,0,0,0,0,0,0,0,0,0,0,0,0,0,0,0,0,0,0,0,0,0,0,0,0,0,0,0,0],"sum_hessian":[1.47602705E4,5.884964E3,8.875307E3,1.0976847E3,4.7872793E3,4.5666133E3,4.3086934E3,3.6285608E2,7.348286E2,2.0057882E3,2.781491E3,2.317117E3,2.2494963E3,3.2029177E3,1.1057758E3,3.615561E2,1.3E0,4.6406393E2,2.707647E2,1.9015541E3,1.0423411E2,2.6217231E3,1.5976765E2,2.2997302E3,1.7386866E1,2.2446218E3,4.8743315E0,1.1761311E3,2.0267866E3,1.103817E3,1.9587374E0],"tree_param":{"num_deleted":"0","num_feature":"15","num_nodes":"31","size_leaf_vector":"1"}},{"base_weights":[-3.7235196E-4,5.720897E-2,-2.682548E-1,-4.2763337E-1,6.858719E-2,-1.9852929E-1,-4.1381058E-1,-4.973025E-1,-3.1491065E-1,8.9074925E-2,-1.4656614E-1,-1.5671891E-1,-3.54913E-1,-4.748336E-1,-1.7527442E-1,-2.5386965E-2,-2.1621848E-3,6.7769135E-3,-1.7049018E-2,5.3693336E-3,-3.5455232E-3,-6.1217397E-3,-2.5271803E-2,-9.521949E-3,-3.7482237E-3,1.7811966E-3,-1.8876497E-2,-2.4117589E-2,2.6816223E-2,-1.1116238E-2,7.5046145E-3],"categories":[],"categories_nodes":[],"categories_segments":[],"categories_sizes":[],"default_left":[0,0,0,0,0,0,0,0,0,0,0,0,0,0,0,0,0,0,0,0,0,0,0,0,0,0,0,0,0,0,0],"id":7,"left_children":[1,3,5,7,9,11,13,15,17,19,21,23,25,27,29,-1,-1,-1,-1,-1,-1,-1,-1,-1,-1,-1,-1,-1,-1,-1,-1],"loss_changes":[1.980904E2,5.834083E1,2.29767E1,1.7478828E0,4.5541557E1,1.0001144E1,1.0614838E1,6.8011475E-1,1.1660194E0,2.763739E1,7.7182293E0,3.3363361E0,2.8724327E0,4.703232E0,2.3495803E0,0E0,0E0,0E0,0E0,0E0,0E0,0E0,0E0,0E0,0E0,0E0,0E0,0E0,0E0,0E0,0E0],"parents":[2147483647,0,0,1,1,2,2,3,3,4,4,5,5,6,6,7,7,8,8,9,9,10,10,11,11,12,12,13,13,14,14],"right_children":[2,4,6,8,10,12,14,16,18,20,22,24,26,28,30,-1,-1,-1,-1,-1,-1,-1,-1,-1,-1,-1,-1,-1,-1,-1,-1],"split_conditions":[2.0499872E2,-4.898871E2,3.6022714E2,-5.497959E2,2.5E0,2.5E0,1.4764376E3,4.5E0,6.666667E-1,2.5E0,6E0,7.1428573E-1,4.716981E-1,5.8E1,1.7097649E3,-2.5386965E-2,-2.1621848E-3,6.7769135E-3,-1.7049018E-2,5.3693336E-3,-3.5455232E-3,-6.1217397E-3,-2.5271803E-2,-9.521949E-3,-3.7482237E-3,1.7811966E-3,-1.8876497E-2,-2.4117589E-2,2.6816223E-2,-1.1116238E-2,7.5046145E-3],"split_indices":[0,0,0,0,10,10,2,9,9,8,10,5,13,14,2,0,0,0,0,0,0,0,0,0,0,0,0,0,0,0,0],"split_type":[0,0,0,0,0,0,0,0,0,0,0,0,0,0,0,0,0,0,0,0,0,0,0,0,0,0,0,0,0,0,0],"sum_hessian":[1.284015E4,1.0569107E4,2.271043E3,2.4150827E2,1.03276E4,1.5370939E3,7.339491E2,1.4714961E2,9.4358665E1,9.430205E3,8.9739465E2,1.2144135E3,3.2268048E2,5.8364795E2,1.5030116E2,1.437277E2,3.4219003E0,4.9325075E0,8.9426155E1,8.461984E3,9.6822046E2,8.421101E2,5.5284504E1,8.5884753E2,3.555659E2,1.7632715E1,3.050478E2,5.798595E2,3.7884047E0,1.3158913E2,1.8712029E1],"tree_param":{"num_deleted":"0","num_feature":"15","num_nodes":"31","size_leaf_vector":"1"}},{"base_weights":[2.4582222E-3,-3.3379963E-1,3.3577803E-1,-5.6666464E-1,-1.7993644E-1,1.9515748E-1,5.8902204E-1,-7.762937E-1,-4.8482707E-1,-2.676011E-1,-1.1030145E-1,9.751271E-2,2.7992886E-1,5.169074E-1,7.694195E-1,-4.2020842E-2,-3.559649E-2,-2.8357465E-2,-2.2081278E-2,2.7479494E-2,-1.3585016E-2,-6.128906E-3,2.0685E-2,3.3942906E-3,1.5666401E-2,1.82927E-2,9.465377E-3,2.76549E-2,1.860497E-2,4.0926863E-2,2.6071817E-2],"categories":[],"categories_nodes":[],"categories_segments":[],"categories_sizes":[],"default_left":[0,0,0,0,0,0,0,0,0,0,0,0,0,0,0,0,0,0,0,0,0,0,0,0,0,0,0,0,0,0,0],"id":8,"left_children":[1,3,5,7,9,11,13,15,17,19,21,23,25,27,29,-1,-1,-1,-1,-1,-1,-1,-1,-1,-1,-1,-1,-1,-1,-1,-1],"loss_changes":[2.057423E3,3.2730603E2,3.281687E2,6.1986694E1,3.3568726E1,4.904785E1,4.2412964E1,3.6073608E0,9.057373E0,8.308823E0,1.9793793E1,1.7604963E1,2.4638107E1,1.2130859E1,1.0995483E1,0E0,0E0,0E0,0E0,0E0,0E0,0E0,0E0,0E0,0E0,0E0,0E0,0E0,0E0,0E0,0E0],"parents":[2147483647,0,0,1,1,2,2,3,3,4,4,5,5,6,6,7,7,8,8,9,9,10,10,11,11,12,12,13,13,14,14],"right_children":[2,4,6,8,10,12,14,16,18,20,22,24,26,28,30,-1,-1,-1,-1,-1,-1,-1,-1,-1,-1,-1,-1,-1,-1,-1,-1],"split_conditions":[1.0062871E1,-1.6771516E2,2.0499872E2,-3.4783795E2,-8.001069E1,8.9670166E1,3.757978E2,-4.4286212E2,7E0,5E-2,3.6666667E0,2.5E0,1.5270173E3,1.5E1,1.4809176E3,-4.2020842E-2,-3.559649E-2,-2.8357465E-2,-2.2081278E-2,2.7479494E-2,-1.3585016E-2,-6.128906E-3,2.0685E-2,3.3942906E-3,1.5666401E-2,1.82927E-2,9.465377E-3,2.76549E-2,1.860497E-2,4.0926863E-2,2.6071817E-2],"split_indices":[0,0,0,0,0,0,0,0,11,6,10,10,2,14,2,0,0,0,0,0,0,0,0,0,0,0,0,0,0,0,0],"split_type":[0,0,0,0,0,0,0,0,0,0,0,0,0,0,0,0,0,0,0,0,0,0,0,0,0,0,0,0,0,0,0],"sum_hessian":[1.8354508E4,9.136984E3,9.217523E3,3.6341616E3,5.5028228E3,5.9277515E3,3.2897722E3,1.0180117E3,2.61615E3,2.4347861E3,3.0680366E3,2.7557097E3,3.1720417E3,2.3530112E3,9.367609E2,5.0391946E2,5.140923E2,8.9622675E2,1.719923E3,1.1488327E1,2.4232979E3,2.9985505E3,6.9486015E1,2.4242288E3,3.3148102E2,1.6266506E3,1.5453911E3,1.8802723E3,4.72739E2,7.79972E2,1.5678891E2],"tree_param":{"num_deleted":"0","num_feature":"15","num_nodes":"31","size_leaf_vector":"1"}},{"base_weights":[4.4448406E-4,3.9192447E-1,-1.4656228E-1,6.9049245E-1,2.6932546E-1,-5.5536246E-3,-3.48815E-1,5.2559954E-1,8.486937E-1,1.9924384E-1,4.1934022E-1,1.4713652E-1,-1.2856995E-1,-4.5994553E-1,-2.7567348E-1,1.0479166E-2,3.0671418E-2,3.634427E-2,5.2084267E-2,1.557039E-2,2.746212E-3,2.7332082E-2,1.5318197E-2,4.945367E-3,2.9514208E-2,-1.4895506E-2,-2.1697313E-3,-1.95179E-2,-2.6553784E-2,1.1936288E-3,-1.554502E-2],"categories":[],"categories_nodes":[],"categories_segments":[],"categories_sizes":[],"default_left":[0,0,0,0,0,0,0,0,0,0,0,0,0,0,0,0,0,0,0,0,0,0,0,0,0,0,0,0,0,0,0],"id":9,"left_children":[1,3,5,7,9,11,13,15,17,19,21,23,25,27,29,-1,-1,-1,-1,-1,-1,-1,-1,-1,-1,-1,-1,-1,-1,-1,-1],"loss_changes":[8.501246E2,1.4742822E2,3.0627228E2,3.0159912E1,2.9989258E1,1.1889191E2,3.5731262E1,1.5889236E1,1.328067E1,3.1573639E1,1.2918808E1,6.030246E1,5.054781E1,8.452484E0,2.810762E1,0E0,0E0,0E0,0E0,0E0,0E0,0E0,0E0,0E0,0E0,0E0,0E0,0E0,0E0,0E0,0E0],"parents":[2147483647,0,0,1,1,2,2,3,3,4,4,5,5,6,6,7,7,8,8,9,9,10,10,11,11,12,12,13,13,14,14],"right_children":[2,4,6,8,10,12,14,16,18,20,22,24,26,28,30,-1,-1,-1,-1,-1,-1,-1,-1,-1,-1,-1,-1,-1,-1,-1,-1],"split_conditions":[3.5714287E-1,1.3876548E3,6.0714287E-1,2.25E0,6.875E-1,1.5559099E3,4E-1,3.5714287E-1,5.555556E-1,1.5728751E3,1.6883117E-1,3.3333333E0,5E-1,1.6085239E3,1.4748394E3,1.0479166E-2,3.0671418E-2,3.634427E-2,5.2084267E-2,1.557039E-2,2.746212E-3,2.7332082E-2,1.5318197E-2,4.945367E-3,2.9514208E-2,-1.4895506E-2,-2.1697313E-3,-1.95179E-2,-2.6553784E-2,1.1936288E-3,-1.554502E-2],"split_indices":[13,1,13,8,6,1,6,6,6,1,13,8,4,1,1,0,0,0,0,0,0,0,0,0,0,0,0,0,0,0,0],"split_type":[0,0,0,0,0,0,0,0,0,0,0,0,0,0,0,0,0,0,0,0,0,0,0,0,0,0,0,0,0,0,0],"sum_hessian":[1.4769879E4,4.0317188E3,1.073816E4,1.172259E3,2.85946E3,6.3276265E3,4.410533E3,5.7610645E2,5.961525E2,1.9505565E3,9.089034E2,2.8232097E3,3.5044167E3,1.7485358E3,2.6619976E3,1.2602898E2,4.5007745E2,3.684E2,2.2775256E2,1.0968986E3,8.536579E2,4.255528E2,4.833506E2,2.5472117E3,2.7599802E2,1.1719407E3,2.3324758E3,8.8713135E2,8.614045E2,2.801461E2,2.3818513E3],"tree_param":{"num_deleted":"0","num_feature":"15","num_nodes":"31","size_leaf_vector":"1"}},{"base_weights":[2.0433448E-3,5.6174528E-2,-2.4919425E-1,8.979625E-2,-1.1449326E-1,-1.8099616E-1,-3.9983702E-1,9.684972E-2,-3.2585073E-1,-3.5986504E-1,-7.380073E-2,-1.4502026E-1,-3.1335834E-1,-4.1060594E-1,3.1798914E-1,2.323714E-3,7.296274E-3,1.2183494E-2,-1.7689442E-2,-1.3005297E-2,-2.5476217E-2,-1.0046883E-2,-1.9315624E-3,-8.661576E-3,-6.1956065E-4,-1.3200303E-2,-2.407344E-2,-2.2228273E-2,-1.130478E-2,5.2278526E-2,3.4685533E-3],"categories":[],"categories_nodes":[],"categories_segments":[],"categories_sizes":[],"default_left":[0,0,0,0,0,0,0,0,0,0,0,0,0,0,0,0,0,0,0,0,0,0,0,0,0,0,0,0,0,0,0],"id":10,"left_children":[1,3,5,7,9,11,13,15,17,19,21,23,25,27,29,-1,-1,-1,-1,-1,-1,-1,-1,-1,-1,-1,-1,-1,-1,-1,-1],"loss_changes":[1.7511499E2,6.0798786E1,2.3377182E1,2.5979912E1,1.7386404E1,7.4451256E0,5.6227493E0,2.1511086E1,2.439808E0,3.56736E0,6.68641E0,4.6326904E0,2.6548843E0,4.288208E0,1.9289716E0,0E0,0E0,0E0,0E0,0E0,0E0,0E0,0E0,0E0,0E0,0E0,0E0,0E0,0E0,0E0,0E0],"parents":[2147483647,0,0,1,1,2,2,3,3,4,4,5,5,6,6,7,7,8,8,9,9,10,10,11,11,12,12,13,13,14,14],"right_children":[2,4,6,8,10,12,14,16,18,20,22,24,26,28,30,-1,-1,-1,-1,-1,-1,-1,-1,-1,-1,-1,-1,-1,-1,-1,-1],"split_conditions":[2.0169473E2,2.25E0,3.6022714E2,3.5E0,-3.9132492E2,2.5E0,4.9E1,6E0,5E-1,3.5E0,1E0,1.9E1,2.5E0,1.9762948E3,2.5E-1,2.323714E-3,7.296274E-3,1.2183494E-2,-1.7689442E-2,-1.3005297E-2,-2.5476217E-2,-1.0046883E-2,-1.9315624E-3,-8.661576E-3,-6.1956065E-4,-1.3200303E-2,-2.407344E-2,-2.2228273E-2,-1.130478E-2,5.2278526E-2,3.4685533E-3],"split_indices":[0,8,0,10,0,10,14,14,8,8,14,14,7,1,8,0,0,0,0,0,0,0,0,0,0,0,0,0,0,0,0],"split_type":[0,0,0,0,0,0,0,0,0,0,0,0,0,0,0,0,0,0,0,0,0,0,0,0,0,0,0,0,0,0,0],"sum_hessian":[1.2874273E4,1.0592754E4,2.2815188E3,8.849808E3,1.742947E3,1.5720372E3,7.0948157E2,8.702888E3,1.4691959E2,2.468178E2,1.4961293E3,1.2377213E3,3.3431586E2,6.994168E2,1.0064766E1,4.2955376E3,4.40735E3,6.5091124E0,1.4041048E2,1.4974171E2,9.707607E1,3.2316852E2,1.1729608E3,1.02037366E3,2.1734772E2,2.604313E2,7.388454E1,5.895074E2,1.0990946E2,1.7469078E0,8.317859E0],"tree_param":{"num_deleted":"0","num_feature":"15","num_nodes":"31","size_leaf_vector":"1"}},{"base_weights":[-1.8221428E-4,-2.9304215E-1,1.6840068E-1,-3.8546237E-1,-1.6493528E-1,3.4823152E-1,-4.800302E-3,-2.497964E-1,-4.9282056E-1,-4.1248396E-2,-2.1036522E-1,2.4294516E-1,5.614587E-1,-1.5315644E-1,1.2535313E-1,-2.477189E-2,-8.219174E-3,-3.135666E-2,-1.9248528E-2,-7.2709695E-3,4.7969148E-3,-1.33621935E-2,-4.275262E-3,4.2357408E-3,1.7297206E-2,3.3223033E-2,2.2380298E-2,-2.012441E-2,-2.6827417E-3,9.560444E-3,1.6542991E-4],"categories":[],"categories_nodes":[],"categories_segments":[],"categories_sizes":[],"default_left":[0,0,0,0,0,0,0,0,0,0,0,0,0,0,0,0,0,0,0,0,0,0,0,0,0,0,0,0,0,0,0],"id":11,"left_children":[1,3,5,7,9,11,13,15,17,19,21,23,25,27,29,-1,-1,-1,-1,-1,-1,-1,-1,-1,-1,-1,-1,-1,-1,-1,-1],"loss_changes":[9.0351953E2,7.909515E1,3.617618E2,5.6434753E1,1.5745705E1,1.2778937E2,1.1427809E2,3.5952377E1,3.1144775E1,1.0795131E1,1.4538216E1,6.216942E1,2.1782715E1,6.859397E1,2.533794E1,0E0,0E0,0E0,0E0,0E0,0E0,0E0,0E0,0E0,0E0,0E0,0E0,0E0,0E0,0E0,0E0],"parents":[2147483647,0,0,1,1,2,2,3,3,4,4,5,5,6,6,7,7,8,8,9,9,10,10,11,11,12,12,13,13,14,14],"right_children":[2,4,6,8,10,12,14,16,18,20,22,24,26,28,30,-1,-1,-1,-1,-1,-1,-1,-1,-1,-1,-1,-1,-1,-1,-1,-1],"split_conditions":[4.8666668E-1,3E-1,1.5270173E3,1.6418596E3,1.5391705E3,8.0136985E-1,5.4545456E-1,2.5E-1,4.5E-1,5E-1,6.111111E-1,4.5E-1,1.3610933E3,4.375E-1,1.7267616E3,-2.477189E-2,-8.219174E-3,-3.135666E-2,-1.9248528E-2,-7.2709695E-3,4.7969148E-3,-1.33621935E-2,-4.275262E-3,4.2357408E-3,1.7297206E-2,3.3223033E-2,2.2380298E-2,-2.012441E-2,-2.6827417E-3,9.560444E-3,1.6542991E-4],"split_indices":[13,13,2,2,2,13,13,5,5,5,5,5,2,5,2,0,0,0,0,0,0,0,0,0,0,0,0,0,0,0,0],"split_type":[0,0,0,0,0,0,0,0,0,0,0,0,0,0,0,0,0,0,0,0,0,0,0,0,0,0,0,0,0,0,0],"sum_hessian":[1.8298547E4,6.684896E3,1.161365E4,3.8821707E3,2.8027253E3,5.6972783E3,5.916372E3,1.7164546E3,2.165716E3,7.534101E2,2.0493152E3,3.815445E3,1.8818335E3,2.7647634E3,3.1516086E3,4.4161145E2,1.2748431E3,9.6238275E2,1.2033334E3,4.2820102E2,3.2520908E2,1.4071586E3,6.421567E2,1.5050936E3,2.3103516E3,9.854588E2,8.9637463E2,7.877557E2,1.9770078E3,2.0466569E3,1.1049517E3],"tree_param":{"num_deleted":"0","num_feature":"15","num_nodes":"31","size_leaf_vector":"1"}},{"base_weights":[-4.510405E-3,4.0483043E-1,-2.7501827E-1,7.423763E-1,2.5313687E-1,-1.2904318E-1,-4.5632234E-1,1.0071456E0,5.9520257E-1,3.5248274E-1,1.4701983E-1,-4.6775274E-2,-2.0560567E-1,-3.825586E-1,-5.4730994E-1,5.7183694E-2,4.3362282E-2,2.8572252E-2,5.3014606E-2,1.6899325E-2,4.386586E-2,5.75889E-3,1.7473202E-2,-2.677434E-3,3.3893786E-2,-7.37204E-3,-1.41356755E-2,-1.6840393E-2,-2.1205777E-2,-2.4039853E-2,-2.9472971E-2],"categories":[],"categories_nodes":[],"categories_segments":[],"categories_sizes":[],"default_left":[0,0,0,0,0,0,0,0,0,0,0,0,0,0,0,0,0,0,0,0,0,0,0,0,0,0,0,0,0,0,0],"id":12,"left_children":[1,3,5,7,9,11,13,15,17,19,21,23,25,27,29,-1,-1,-1,-1,-1,-1,-1,-1,-1,-1,-1,-1,-1,-1,-1,-1],"loss_changes":[1.6409302E3,3.0173297E2,2.3608887E2,7.06225E1,4.285254E1,3.1133018E1,2.6498535E1,1.1452942E1,1.2401428E1,1.5689758E1,1.2655762E1,1.1741083E1,1.1442909E1,4.04187E0,4.705017E0,0E0,0E0,0E0,0E0,0E0,0E0,0E0,0E0,0E0,0E0,0E0,0E0,0E0,0E0,0E0,0E0],"parents":[2147483647,0,0,1,1,2,2,3,3,4,4,5,5,6,6,7,7,8,8,9,9,10,10,11,11,12,12,13,13,14,14],"right_children":[2,4,6,8,10,12,14,16,18,20,22,24,26,28,30,-1,-1,-1,-1,-1,-1,-1,-1,-1,-1,-1,-1,-1,-1,-1,-1],"split_conditions":[-5.318346E1,-2.5061938E2,1.2945284E2,-3.9132492E2,-1.3160593E2,3.0952686E1,2.5273349E2,-4.898871E2,4.25E0,4.5E0,2.6E0,4.75E0,5.689655E-1,1.8076302E2,3.2060345E2,5.7183694E-2,4.3362282E-2,2.8572252E-2,5.3014606E-2,1.6899325E-2,4.386586E-2,5.75889E-3,1.7473202E-2,-2.677434E-3,3.3893786E-2,-7.37204E-3,-1.41356755E-2,-1.6840393E-2,-2.1205777E-2,-2.4039853E-2,-2.9472971E-2],"split_indices":[0,0,0,0,0,0,0,0,8,8,8,8,13,0,0,0,0,0,0,0,0,0,0,0,0,0,0,0,0,0,0],"split_type":[0,0,0,0,0,0,0,0,0,0,0,0,0,0,0,0,0,0,0,0,0,0,0,0,0,0,0,0,0,0,0],"sum_hessian":[1.4817209E4,5.8954844E3,8.921725E3,1.8267461E3,4.0687383E3,4.943349E3,3.9783752E3,6.505488E2,1.1761973E3,2.100214E3,1.968524E3,2.3836653E3,2.559684E3,2.2000212E3,1.7783541E3,3.2561075E2,3.2493808E2,1.1211554E3,5.5041843E1,2.045364E3,5.485017E1,1.702336E3,2.66188E2,2.3625085E3,2.115657E1,1.4607251E3,1.0989589E3,1.0515051E3,1.1485161E3,6.946256E2,1.0837285E3],"tree_param":{"num_deleted":"0","num_feature":"15","num_nodes":"31","size_leaf_vector":"1"}},{"base_weights":[-4.2364052E-3,4.821852E-2,-2.5077805E-1,-2.7464092E-1,6.4230315E-2,-1.780084E-1,-3.9958003E-1,-4.0587834E-1,-1.4792061E-1,8.6534604E-2,-1.6685058E-1,-1.2307312E-1,-2.9807192E-1,-4.587491E-1,-1.6777037E-1,-2.0752087E-2,9.796478E-3,-4.632367E-3,-2.6312372E-2,5.086796E-3,-3.0299153E-3,-7.2652237E-3,-2.5377182E-2,-4.1716066E-3,-9.259395E-3,-1.1303114E-2,-2.2499299E-2,-2.3435127E-2,1.8663637E-2,-2.2351502E-2,-4.2111925E-3],"categories":[],"categories_nodes":[],"categories_segments":[],"categories_sizes":[],"default_left":[0,0,0,0,0,0,0,0,0,0,0,0,0,0,0,0,0,0,0,0,0,0,0,0,0,0,0,0,0,0,0],"id":13,"left_children":[1,3,5,7,9,11,13,15,17,19,21,23,25,27,29,-1,-1,-1,-1,-1,-1,-1,-1,-1,-1,-1,-1,-1,-1,-1,-1],"loss_changes":[1.6652704E2,5.4907066E1,2.4390564E1,8.286545E0,5.2158035E1,9.981766E0,1.0088318E1,1.4377708E0,5.3235893E0,2.0643486E1,6.4658985E0,2.5547256E0,5.1066513E0,5.059761E0,3.5152497E0,0E0,0E0,0E0,0E0,0E0,0E0,0E0,0E0,0E0,0E0,0E0,0E0,0E0,0E0,0E0,0E0],"parents":[2147483647,0,0,1,1,2,2,3,3,4,4,5,5,6,6,7,7,8,8,9,9,10,10,11,11,12,12,13,13,14,14],"right_children":[2,4,6,8,10,12,14,16,18,20,22,24,26,28,30,-1,-1,-1,-1,-1,-1,-1,-1,-1,-1,-1,-1,-1,-1,-1,-1],"split_conditions":[2.0169473E2,-3.9132492E2,3.499337E2,-4.898871E2,2.5E0,2.2E0,1.4784319E3,4.6666665E0,3.5E0,2.6E0,6E0,7.6666665E-1,8.888889E-1,4.7E1,6.666667E-1,-2.0752087E-2,9.796478E-3,-4.632367E-3,-2.6312372E-2,5.086796E-3,-3.0299153E-3,-7.2652237E-3,-2.5377182E-2,-4.1716066E-3,-9.259395E-3,-1.1303114E-2,-2.2499299E-2,-2.3435127E-2,1.8663637E-2,-2.2351502E-2,-4.2111925E-3],"split_indices":[0,0,0,0,10,10,2,9,8,8,10,13,13,14,5,0,0,0,0,0,0,0,0,0,0,0,0,0,0,0,0],"split_type":[0,0,0,0,0,0,0,0,0,0,0,0,0,0,0,0,0,0,0,0,0,0,0,0,0,0,0,0,0,0,0],"sum_hessian":[1.2874872E4,1.06168125E4,2.2580596E3,5.008854E2,1.0115927E4,1.5179315E3,7.401281E2,2.4497502E2,2.5591039E2,9.226041E3,8.898861E2,1.0428148E3,4.7511673E2,5.8884686E2,1.5128125E2,2.4160655E2,3.3684628E0,2.2437434E2,3.1536034E1,8.362375E3,8.6366626E2,8.38297E2,5.1589096E1,6.379958E2,4.0481906E2,3.2401602E2,1.5110068E2,5.8231726E2,6.529565E0,3.383498E1,1.1744627E2],"tree_param":{"num_deleted":"0","num_feature":"15","num_nodes":"31","size_leaf_vector":"1"}},{"base_weights":[-2.142902E-3,-3.0951837E-1,3.1837925E-1,-5.3064406E-1,-1.5992892E-1,1.6640303E-1,5.2570766E-1,-7.4138105E-1,-4.63708E-1,6.085414E-1,-1.6713059E-1,8.774403E-2,2.4508417E-1,4.1099003E-1,6.384724E-1,-3.7269194E-2,3.5934985E-2,-2.706255E-2,-2.0854099E-2,8.0098E-3,3.6950585E-2,-1.179687E-2,-5.086046E-3,2.4403473E-3,1.225838E-2,1.6751846E-2,8.460405E-3,1.953418E-2,3.0575017E-2,2.888357E-2,3.7887864E-2],"categories":[],"categories_nodes":[],"categories_segments":[],"categories_sizes":[],"default_left":[0,0,0,0,0,0,0,0,0,0,0,0,0,0,0,0,0,0,0,0,0,0,0,0,0,0,0,0,0,0,0],"id":14,"left_children":[1,3,5,7,9,11,13,15,17,19,21,23,25,27,29,-1,-1,-1,-1,-1,-1,-1,-1,-1,-1,-1,-1,-1,-1,-1,-1],"loss_changes":[1.803136E3,3.089521E2,2.8221594E2,5.2828125E1,3.0950714E1,3.1983612E1,4.8754395E1,5.836548E0,1.0127197E1,2.9215488E0,2.4833939E1,1.5848881E1,1.7584808E1,7.4203186E0,1.3407715E1,0E0,0E0,0E0,0E0,0E0,0E0,0E0,0E0,0E0,0E0,0E0,0E0,0E0,0E0,0E0,0E0],"parents":[2147483647,0,0,1,1,2,2,3,3,4,4,5,5,6,6,7,7,8,8,9,9,10,10,11,11,12,12,13,13,14,14],"right_children":[2,4,6,8,10,12,14,16,18,20,22,24,26,28,30,-1,-1,-1,-1,-1,-1,-1,-1,-1,-1,-1,-1,-1,-1,-1,-1],"split_conditions":[1.6482029E1,-1.6244142E2,1.8355977E2,-3.5912323E2,1E-1,9.17816E1,2.804166E2,4.2E0,-2.5562323E2,5E-1,-6.671899E1,7.2727275E-1,1.6421182E3,3.25E0,4.2346326E2,-3.7269194E-2,3.5934985E-2,-2.706255E-2,-2.0854099E-2,8.0098E-3,3.6950585E-2,-1.179687E-2,-5.086046E-3,2.4403473E-3,1.225838E-2,1.6751846E-2,8.460405E-3,1.953418E-2,3.0575017E-2,2.888357E-2,3.7887864E-2],"split_indices":[0,0,0,0,6,0,0,10,0,7,0,13,1,10,0,0,0,0,0,0,0,0,0,0,0,0,0,0,0,0,0],"split_type":[0,0,0,0,0,0,0,0,0,0,0,0,0,0,0,0,0,0,0,0,0,0,0,0,0,0,0,0,0,0,0],"sum_hessian":[1.8300111E4,9.341653E3,8.958457E3,3.7684775E3,5.5731763E3,5.17031E3,3.7881472E3,9.060028E2,2.8624746E3,5.09685E1,5.5222075E3,2.5865764E3,2.5837336E3,1.8801156E3,1.9080316E3,9.04014E2,1.9888548E0,1.0708888E3,1.7915859E3,1.199093E1,3.897757E1,2.689947E3,2.8322605E3,2.0747249E3,5.1185162E2,1.1806416E3,1.4030919E3,1.7098964E3,1.7021928E2,1.2677081E3,6.4032355E2],"tree_param":{"num_deleted":"0","num_feature":"15","num_nodes":"31","size_leaf_vector":"1"}},{"base_weights":[-1.148705E-3,3.8857937E-1,-2.6721922E-1,7.990366E-1,2.748854E-1,-1.1651823E-1,-4.3744108E-1,9.628652E-1,6.2399566E-1,4.138706E-1,1.7786515E-1,-3.6709603E-2,-1.9589005E-1,-3.8824946E-1,-5.820548E-1,5.6742128E-2,4.4010397E-2,4.5750033E-2,2.9636476E-2,1.9774487E-2,4.938744E-2,1.3670044E-2,4.8806793E-3,-2.3600485E-3,1.224713E-2,-7.154415E-3,-1.317385E-2,-1.5845662E-2,-2.1507991E-2,-2.9231781E-2,1.08964825E-2],"categories":[],"categories_nodes":[],"categories_segments":[],"categories_sizes":[],"default_left":[0,0,0,0,0,0,0,0,0,0,0,0,0,0,0,0,0,0,0,0,0,0,0,0,0,0,0,0,0,0,0],"id":15,"left_children":[1,3,5,7,9,11,13,15,17,19,21,23,25,27,29,-1,-1,-1,-1,-1,-1,-1,-1,-1,-1,-1,-1,-1,-1,-1,-1],"loss_changes":[1.5391359E3,2.8080878E2,2.2622626E2,3.684314E1,6.353665E1,2.963887E1,2.9237854E1,8.562439E0,5.2270966E0,2.0057495E1,2.1285912E1,6.9108057E0,8.335266E0,9.112427E0,2.2937317E0,0E0,0E0,0E0,0E0,0E0,0E0,0E0,0E0,0E0,0E0,0E0,0E0,0E0,0E0,0E0,0E0],"parents":[2147483647,0,0,1,1,2,2,3,3,4,4,5,5,6,6,7,7,8,8,9,9,10,10,11,11,12,12,13,13,14,14],"right_children":[2,4,6,8,10,12,14,16,18,20,22,24,26,28,30,-1,-1,-1,-1,-1,-1,-1,-1,-1,-1,-1,-1,-1,-1,-1,-1],"split_conditions":[-5.318346E1,-2.9979437E2,1.19612144E2,-3.9132492E2,-1.6771516E2,2.9032774E1,3.2060345E2,-5.497959E2,3E0,4.5E0,1E1,3.25E0,5.555556E-1,1.7508337E2,3.5E0,5.6742128E-2,4.4010397E-2,4.5750033E-2,2.9636476E-2,1.9774487E-2,4.938744E-2,1.3670044E-2,4.8806793E-3,-2.3600485E-3,1.224713E-2,-7.154415E-3,-1.317385E-2,-1.5845662E-2,-2.1507991E-2,-2.9231781E-2,1.08964825E-2],"split_indices":[0,0,0,0,0,0,0,0,11,8,12,8,13,0,8,0,0,0,0,0,0,0,0,0,0,0,0,0,0,0,0],"split_type":[0,0,0,0,0,0,0,0,0,0,0,0,0,0,0,0,0,0,0,0,0,0,0,0,0,0,0,0,0,0,0],"sum_hessian":[1.4840889E4,6.0210566E3,8.819832E3,1.304724E3,4.7163325E3,4.6790527E3,4.14078E3,6.7162225E2,6.331017E2,1.9375095E3,2.778823E3,2.333836E3,2.345217E3,3.0925176E3,1.0482621E3,2.1388408E2,4.577382E2,5.868013E1,5.744216E2,1.8790153E3,5.849419E1,1.2675078E3,1.5113153E3,2.2508264E3,8.300944E1,1.3183689E3,1.026848E3,1.1476497E3,1.9448678E3,1.0451595E3,3.102581E0],"tree_param":{"num_deleted":"0","num_feature":"15","num_nodes":"31","size_leaf_vector":"1"}},{"base_weights":[7.32249E-4,3.199189E-2,-2.3756114E-1,-2.494685E-2,9.1721706E-2,-3.430348E-2,-2.8594166E-1,-1.1111123E-1,2.4715917E-2,1.2719794E-1,-3.936543E-2,-1.648926E-1,5.6355204E-2,-3.1564572E-1,2.7241828E-2,-3.4023714E-3,-1.6359596E-2,2.7796682E-3,-8.46887E-3,-1.0241684E-2,6.8260925E-3,3.6128727E-3,-5.356318E-3,-1.2018349E-2,5.6254803E-3,6.00972E-3,-8.181616E-3,-1.3963878E-2,-2.4911132E-2,1.1959127E-2,-1.2706496E-2],"categories":[],"categories_nodes":[],"categories_segments":[],"categories_sizes":[],"default_left":[0,0,0,0,0,0,0,0,0,0,0,0,0,0,0,0,0,0,0,0,0,0,0,0,0,0,0,0,0,0,0],"id":16,"left_children":[1,3,5,7,9,11,13,15,17,19,21,23,25,27,29,-1,-1,-1,-1,-1,-1,-1,-1,-1,-1,-1,-1,-1,-1,-1,-1],"loss_changes":[9.581712E1,3.8675762E1,1.4659317E1,2.4918198E1,2.5814667E1,3.4181952E0,1.1216476E1,1.9789354E1,2.2150528E1,1.3550766E1,8.954296E0,2.5026102E0,2.4169102E0,7.1681137E0,6.33965E0,0E0,0E0,0E0,0E0,0E0,0E0,0E0,0E0,0E0,0E0,0E0,0E0,0E0,0E0,0E0,0E0],"parents":[2147483647,0,0,1,1,2,2,3,3,4,4,5,5,6,6,7,7,8,8,9,9,10,10,11,11,12,12,13,13,14,14],"right_children":[2,4,6,8,10,12,14,16,18,20,22,24,26,28,30,-1,-1,-1,-1,-1,-1,-1,-1,-1,-1,-1,-1,-1,-1,-1,-1],"split_conditions":[2.5E0,6E0,5E-1,1.5247616E3,6.8E-1,1.2E1,1.5433456E3,1.6862751E3,2.4E0,1.2243895E3,1.2E0,3.7719297E-1,2.2E0,4.8E0,1.7531093E3,-3.4023714E-3,-1.6359596E-2,2.7796682E-3,-8.46887E-3,-1.0241684E-2,6.8260925E-3,3.6128727E-3,-5.356318E-3,-1.2018349E-2,5.6254803E-3,6.00972E-3,-8.181616E-3,-1.3963878E-2,-2.4911132E-2,1.1959127E-2,-1.2706496E-2],"split_indices":[10,14,13,2,13,11,2,1,8,1,10,13,7,10,1,0,0,0,0,0,0,0,0,0,0,0,0,0,0,0,0],"split_type":[0,0,0,0,0,0,0,0,0,0,0,0,0,0,0,0,0,0,0,0,0,0,0,0,0,0,0,0,0,0,0],"sum_hessian":[1.2861123E4,1.1370404E4,1.4907189E3,5.821508E3,5.548896E3,2.8693747E2,1.2037814E3,2.1280776E3,3.6934302E3,4.3670635E3,1.1818326E3,1.1724021E2,1.6969727E2,1.0994916E3,1.04289825E2,1.775537E3,3.5254077E2,3.187119E3,5.0631113E2,1.1871079E2,4.2483525E3,4.4640356E2,7.354291E2,9.2269455E1,2.4970762E1,1.3188002E2,3.7817238E1,9.1896844E2,1.8052313E2,5.9569546E1,4.472028E1],"tree_param":{"num_deleted":"0","num_feature":"15","num_nodes":"31","size_leaf_vector":"1"}},{"base_weights":[-2.3095044E-3,-2.9993722E-1,3.010296E-1,-5.145209E-1,-1.5330335E-1,1.7041117E-1,5.2309394E-1,-6.93142E-1,-4.4454905E-1,-2.3484282E-1,-8.637749E-2,8.3367825E-2,2.427505E-1,4.4382808E-1,6.7538786E-1,-3.486565E-2,3.7983477E-2,-2.3003314E-2,-1.3252029E-2,-1.4648313E-2,-8.9447955E-3,-4.9230973E-3,2.009347E-2,3.6271994E-3,2.6210606E-2,1.58248E-2,9.267401E-3,2.0495052E-2,2.8091563E-2,3.5499632E-2,2.6061712E-2],"categories":[],"categories_nodes":[],"categories_segments":[],"categories_sizes":[],"default_left":[0,0,0,0,0,0,0,0,0,0,0,0,0,0,0,0,0,0,0,0,0,0,0,0,0,0,0,0,0,0,0],"id":17,"left_children":[1,3,5,7,9,11,13,15,17,19,21,23,25,27,29,-1,-1,-1,-1,-1,-1,-1,-1,-1,-1,-1,-1,-1,-1,-1,-1],"loss_changes":[1.6497335E3,2.9013672E2,2.6240417E2,4.648285E1,2.9888062E1,3.5868057E1,4.0154236E1,6.904358E0,7.378784E0,7.9796143E0,1.7808784E1,1.2312862E1,1.3115707E1,8.605133E0,5.7390747E0,0E0,0E0,0E0,0E0,0E0,0E0,0E0,0E0,0E0,0E0,0E0,0E0,0E0,0E0,0E0,0E0],"parents":[2147483647,0,0,1,1,2,2,3,3,4,4,5,5,6,6,7,7,8,8,9,9,10,10,11,11,12,12,13,13,14,14],"right_children":[2,4,6,8,10,12,14,16,18,20,22,24,26,28,30,-1,-1,-1,-1,-1,-1,-1,-1,-1,-1,-1,-1,-1,-1,-1,-1],"split_conditions":[1.4151828E1,-1.6244142E2,2.0169473E2,-3.389885E2,-7.3261246E1,8.9670166E1,3.499337E2,4.2E0,5.054348E-1,1.4E1,3.6666667E0,4.25E0,1.6357113E3,9.166667E-1,4.1666666E-1,-3.486565E-2,3.7983477E-2,-2.3003314E-2,-1.3252029E-2,-1.4648313E-2,-8.9447955E-3,-4.9230973E-3,2.009347E-2,3.6271994E-3,2.6210606E-2,1.58248E-2,9.267401E-3,2.0495052E-2,2.8091563E-2,3.5499632E-2,2.6061712E-2],"split_indices":[0,0,0,0,0,0,0,10,13,12,10,10,1,13,6,0,0,0,0,0,0,0,0,0,0,0,0,0,0,0,0],"split_type":[0,0,0,0,0,0,0,0,0,0,0,0,0,0,0,0,0,0,0,0,0,0,0,0,0,0,0,0,0,0,0],"sum_hessian":[1.8271092E4,9.222372E3,9.048719E3,3.7427427E3,5.4796294E3,5.6985786E3,3.3501404E3,1.0509684E3,2.6917744E3,2.4690007E3,3.0106284E3,2.587402E3,3.1111765E3,2.2059187E3,1.1442218E3,1.0484783E3,2.490161E0,2.4761648E3,2.1560951E2,1.2088678E3,1.2601329E3,2.938692E3,7.193639E1,2.526534E3,6.0868217E1,1.3597628E3,1.7514138E3,1.7167969E3,4.8912177E2,9.3150854E2,2.1271323E2],"tree_param":{"num_deleted":"0","num_feature":"15","num_nodes":"31","size_leaf_vector":"1"}},{"base_weights":[-2.9547627E-3,3.3569756E-1,-2.8881335E-1,6.513004E-1,1.9506244E-1,-1.5206426E-1,-4.4199878E-1,9.0472525E-1,5.2812123E-1,3.0467266E-1,1.04862794E-1,-1.0355281E-1,-2.1884328E-1,-3.9374962E-1,-5.736918E-1,5.521975E-2,4.061189E-2,2.3676481E-2,3.514051E-2,1.4343244E-2,3.4869384E-2,8.908314E-3,2.1599017E-3,-7.1132057E-3,-9.850374E-4,-1.12415925E-2,2.6026327E-2,3.1215915E-2,-1.9775398E-2,-2.8821478E-2,2.147495E-2],"categories":[],"categories_nodes":[],"categories_segments":[],"categories_sizes":[],"default_left":[0,0,0,0,0,0,0,0,0,0,0,0,0,0,0,0,0,0,0,0,0,0,0,0,0,0,0,0,0,0,0],"id":18,"left_children":[1,3,5,7,9,11,13,15,17,19,21,23,25,27,29,-1,-1,-1,-1,-1,-1,-1,-1,-1,-1,-1,-1,-1,-1,-1,-1],"loss_changes":[1.4287091E3,2.997094E2,1.675791E2,6.4512634E1,4.6183594E1,1.3680176E1,2.3755188E1,1.1652161E1,1.3050537E1,1.4553574E1,1.1590384E1,7.9562416E0,7.993698E0,5.197174E0,3.0210266E0,0E0,0E0,0E0,0E0,0E0,0E0,0E0,0E0,0E0,0E0,0E0,0E0,0E0,0E0,0E0,0E0],"parents":[2147483647,0,0,1,1,2,2,3,3,4,4,5,5,6,6,7,7,8,8,9,9,10,10,11,11,12,12,13,13,14,14],"right_children":[2,4,6,8,10,12,14,16,18,20,22,24,26,28,30,-1,-1,-1,-1,-1,-1,-1,-1,-1,-1,-1,-1,-1,-1,-1,-1],"split_conditions":[-2.7574938E1,-2.366665E2,1.3220535E2,-3.9132492E2,-1.2663771E2,5.9830307E1,3.2060345E2,-5.497959E2,2.6E0,4E0,1E1,1.8E0,4.5E0,5.5555556E-2,3.6666667E0,5.521975E-2,4.061189E-2,2.3676481E-2,3.514051E-2,1.4343244E-2,3.4869384E-2,8.908314E-3,2.1599017E-3,-7.1132057E-3,-9.850374E-4,-1.12415925E-2,2.6026327E-2,3.1215915E-2,-1.9775398E-2,-2.8821478E-2,2.147495E-2],"split_indices":[0,0,0,0,0,0,0,0,8,8,12,9,8,5,8,0,0,0,0,0,0,0,0,0,0,0,0,0,0,0,0],"split_type":[0,0,0,0,0,0,0,0,0,0,0,0,0,0,0,0,0,0,0,0,0,0,0,0,0,0,0,0,0,0,0],"sum_hessian":[1.4756372E4,6.754383E3,8.001989E3,2.0809158E3,4.6734673E3,4.2288633E3,3.7731257E3,6.7854785E2,1.402368E3,2.1086577E3,2.5648093E3,2.450937E3,1.7779261E3,2.7643308E3,1.008795E3,2.1134254E2,4.672053E2,1.0712919E3,3.3107608E2,2.0188433E3,8.981451E1,1.1709558E3,1.3938535E3,1.6763387E3,7.745983E2,1.7643318E3,1.3594377E1,4.1557155E0,2.760175E3,1.00647363E3,2.3213468E0],"tree_param":{"num_deleted":"0","num_feature":"15","num_nodes":"31","size_leaf_vector":"1"}},{"base_weights":[1.4460484E-4,4.8512276E-2,-2.3478904E-1,9.800859E-2,-5.2287646E-2,-1.6282554E-1,-3.8248143E-1,1.3874868E-1,2.8725808E-2,-4.1418335E-1,-3.2128584E-2,-1.222934E-1,-2.857653E-1,-4.1898733E-1,-6.664003E-2,-1.6637556E-2,7.237868E-3,-8.0751005E-4,5.813248E-3,-2.4453528E-2,-1.4051119E-2,-8.202756E-3,-8.20925E-5,-6.8674698E-3,1.0353932E-2,-1.54343E-2,1.3709791E-2,-2.2736717E-2,-1.334049E-2,-2.6213173E-2,3.18086E-3],"categories":[],"categories_nodes":[],"categories_segments":[],"categories_sizes":[],"default_left":[0,0,0,0,0,0,0,0,0,0,0,0,0,0,0,0,0,0,0,0,0,0,0,0,0,0,0,0,0,0,0],"id":19,"left_children":[1,3,5,7,9,11,13,15,17,19,21,23,25,27,29,-1,-1,-1,-1,-1,-1,-1,-1,-1,-1,-1,-1,-1,-1,-1,-1],"loss_changes":[1.464275E2,5.332042E1,2.3320663E1,2.0226166E1,2.566567E1,7.344898E0,8.274101E0,1.283403E1,1.0432587E1,1.7137718E0,1.3413968E1,5.5604305E0,4.7880325E0,3.38871E0,4.551097E0,0E0,0E0,0E0,0E0,0E0,0E0,0E0,0E0,0E0,0E0,0E0,0E0,0E0,0E0,0E0,0E0],"parents":[2147483647,0,0,1,1,2,2,3,3,4,4,5,5,6,6,7,7,8,8,9,9,10,10,11,11,12,12,13,13,14,14],"right_children":[2,4,6,8,10,12,14,16,18,20,22,24,26,28,30,-1,-1,-1,-1,-1,-1,-1,-1,-1,-1,-1,-1,-1,-1,-1,-1],"split_conditions":[2.0169473E2,1.6666666E0,3.499337E2,4.15237E1,-4.898871E2,8.783784E-1,1.9E1,-4.898871E2,1.2E1,-5.497959E2,1E0,5.4E1,1.7470826E3,1.4671394E3,1.1111111E-1,-1.6637556E-2,7.237868E-3,-8.0751005E-4,5.813248E-3,-2.4453528E-2,-1.4051119E-2,-8.202756E-3,-8.20925E-5,-6.8674698E-3,1.0353932E-2,-1.54343E-2,1.3709791E-2,-2.2736717E-2,-1.334049E-2,-2.6213173E-2,3.18086E-3],"split_indices":[0,8,0,0,0,13,14,0,14,0,14,14,2,2,6,0,0,0,0,0,0,0,0,0,0,0,0,0,0,0,0],"split_type":[0,0,0,0,0,0,0,0,0,0,0,0,0,0,0,0,0,0,0,0,0,0,0,0,0,0,0,0,0,0,0],"sum_hessian":[1.288412E4,1.0685089E4,2.1990312E3,7.16624E3,3.5188486E3,1.48E3,7.190314E2,4.51204E3,2.6542002E3,1.8464018E2,3.3342085E3,1.1145405E3,3.6545935E2,6.442414E2,7.478995E1,5.609253E1,4.4559473E3,1.7552206E3,8.989796E2,1.16467995E2,6.817219E1,6.250448E2,2.7091636E3,1.0663782E3,4.816243E1,3.5151947E2,1.3939883E1,5.200839E2,1.2415751E2,1.5901058E1,5.888889E1],"tree_param":{"num_deleted":"0","num_feature":"15","num_nodes":"31","size_leaf_vector":"1"}},{"base_weights":[1.4463501E-3,-2.8548014E-1,2.954569E-1,-4.876535E-1,-1.4852612E-1,1.9332524E-1,5.5325973E-1,-6.7940754E-1,-4.213726E-1,-2.2206382E-1,-7.7955544E-2,1.2944736E-1,3.1812242E-1,4.882515E-1,7.0209605E-1,-3.7135843E-2,-3.091352E-2,-2.4613347E-2,-1.8428845E-2,2.8854096E-2,-1.1315274E-2,2.2816978E-2,-4.1795205E-3,8.39787E-3,9.0472907E-4,1.8309651E-2,7.997299E-3,2.6121205E-2,1.8089663E-2,3.689453E-2,2.360254E-2],"categories":[],"categories_nodes":[],"categories_segments":[],"categories_sizes":[],"default_left":[0,0,0,0,0,0,0,0,0,0,0,0,0,0,0,0,0,0,0,0,0,0,0,0,0,0,0,0,0,0,0],"id":20,"left_children":[1,3,5,7,9,11,13,15,17,19,21,23,25,27,29,-1,-1,-1,-1,-1,-1,-1,-1,-1,-1,-1,-1,-1,-1,-1,-1],"loss_changes":[1.5362126E3,2.551098E2,2.3670691E2,4.7011963E1,2.850338E1,5.1325592E1,2.434497E1,3.234375E0,1.0179565E1,9.25148E0,8.486088E0,1.8280655E1,1.6523819E1,7.4995117E0,6.0200195E0,0E0,0E0,0E0,0E0,0E0,0E0,0E0,0E0,0E0,0E0,0E0,0E0,0E0,0E0,0E0,0E0],"parents":[2147483647,0,0,1,1,2,2,3,3,4,4,5,5,6,6,7,7,8,8,9,9,10,10,11,11,12,12,13,13,14,14],"right_children":[2,4,6,8,10,12,14,16,18,20,22,24,26,28,30,-1,-1,-1,-1,-1,-1,-1,-1,-1,-1,-1,-1,-1,-1,-1,-1],"split_conditions":[1.4151828E1,-1.6244142E2,2.4040337E2,-3.4783795E2,-6.671899E1,1.4525232E2,3.9604224E2,-4.4286212E2,1.3E1,5E-2,1E-1,1.6765618E3,1.5E1,1.5821666E3,1.5004885E3,-3.7135843E-2,-3.091352E-2,-2.4613347E-2,-1.8428845E-2,2.8854096E-2,-1.1315274E-2,2.2816978E-2,-4.1795205E-3,8.39787E-3,9.0472907E-4,1.8309651E-2,7.997299E-3,2.6121205E-2,1.8089663E-2,3.689453E-2,2.360254E-2],"split_indices":[0,0,0,0,0,0,0,0,11,6,6,2,14,2,2,0,0,0,0,0,0,0,0,0,0,0,0,0,0,0,0],"split_type":[0,0,0,0,0,0,0,0,0,0,0,0,0,0,0,0,0,0,0,0,0,0,0,0,0,0,0,0,0,0,0],"sum_hessian":[1.8208328E4,9.215196E3,8.993131E3,3.7204531E3,5.494743E3,6.442577E3,2.550554E3,9.5328876E2,2.7671646E3,2.6897532E3,2.80499E3,4.262724E3,2.179853E3,1.7781714E3,7.723827E2,4.6284787E2,4.9044092E2,1.1775804E3,1.5895841E3,1.3488142E1,2.6762651E3,2.8438938E1,2.776551E3,3.1669602E3,1.0957639E3,1.6707803E3,5.090729E2,1.3974182E3,3.807531E2,6.6647327E2,1.0590943E2],"tree_param":{"num_deleted":"0","num_feature":"15","num_nodes":"31","size_leaf_vector":"1"}},{"base_weights":[-2.3506612E-3,3.1599814E-1,-2.7496076E-1,6.2300926E-1,1.9441433E-1,-1.3434882E-1,-4.1846737E-1,8.519565E-1,4.971713E-1,3.072973E-1,1.0295851E-1,-1.4091837E-1,5.3684205E-1,-3.600154E-1,-5.305697E-1,5.0625797E-2,3.892256E-2,3.0226741E-2,2.0268274E-2,1.4561697E-2,3.2193016E-2,4.226158E-3,1.7782502E-2,-3.4437105E-3,-9.744361E-3,4.5172453E-2,1.281541E-2,-1.5557416E-2,-1.9848023E-2,-2.7419517E-2,-1.9557275E-2],"categories":[],"categories_nodes":[],"categories_segments":[],"categories_sizes":[],"default_left":[0,0,0,0,0,0,0,0,0,0,0,0,0,0,0,0,0,0,0,0,0,0,0,0,0,0,0,0,0,0,0],"id":21,"left_children":[1,3,5,7,9,11,13,15,17,19,21,23,25,27,29,-1,-1,-1,-1,-1,-1,-1,-1,-1,-1,-1,-1,-1,-1,-1,-1],"loss_changes":[1.2836024E3,2.5456201E2,1.6072119E2,5.5326294E1,5.043985E1,1.7827538E1,2.564441E1,7.2955017E0,1.2086792E1,1.1639343E1,1.2558264E1,1.5491165E1,3.8031836E0,4.560852E0,3.1376648E0,0E0,0E0,0E0,0E0,0E0,0E0,0E0,0E0,0E0,0E0,0E0,0E0,0E0,0E0,0E0,0E0],"parents":[2147483647,0,0,1,1,2,2,3,3,4,4,5,5,6,6,7,7,8,8,9,9,10,10,11,11,12,12,13,13,14,14],"right_children":[2,4,6,8,10,12,14,16,18,20,22,24,26,28,30,-1,-1,-1,-1,-1,-1,-1,-1,-1,-1,-1,-1,-1,-1,-1,-1],"split_conditions":[-2.7574938E1,-2.5061938E2,1.2222065E2,-3.9132492E2,-1.3160593E2,4.5E0,2.804166E2,-5.497959E2,4E0,4E0,3.2E0,3.3108627E1,4E0,1.7790955E2,1.01E2,5.0625797E-2,3.892256E-2,3.0226741E-2,2.0268274E-2,1.4561697E-2,3.2193016E-2,4.226158E-3,1.7782502E-2,-3.4437105E-3,-9.744361E-3,4.5172453E-2,1.281541E-2,-1.5557416E-2,-1.9848023E-2,-2.7419517E-2,-1.9557275E-2],"split_indices":[0,0,0,0,0,8,0,0,14,8,8,0,11,0,11,0,0,0,0,0,0,0,0,0,0,0,0,0,0,0,0],"split_type":[0,0,0,0,0,0,0,0,0,0,0,0,0,0,0,0,0,0,0,0,0,0,0,0,0,0,0,0,0,0,0],"sum_hessian":[1.4788584E4,6.8219194E3,7.9666646E3,1.9340719E3,4.887847E3,4.0248938E3,3.9417708E3,6.8394507E2,1.2501268E3,2.1865955E3,2.701252E3,3.9866626E3,3.8231045E1,2.593624E3,1.3481469E3,2.1077335E2,4.7317175E2,5.736636E2,6.764633E2,2.0887688E3,9.782663E1,2.5188232E3,1.8242867E2,1.7083826E3,2.27828E3,1.5610494E1,2.262055E1,1.1206998E3,1.4729241E3,1.1927596E3,1.5538718E2],"tree_param":{"num_deleted":"0","num_feature":"15","num_nodes":"31","size_leaf_vector":"1"}},{"base_weights":[1.0026682E-3,-1.0922579E-1,6.428863E-2,-4.1297622E-2,-2.3558354E-1,-2.8942862E-1,7.3880136E-2,-5.863744E-3,-3.11313E-1,-4.2019346E-1,-1.7594677E-1,-5.5488104E-1,-2.055356E-1,8.798692E-2,-7.325739E-2,-4.037145E-3,2.5252958E-3,7.2762812E-3,-1.7730324E-2,-2.1564916E-2,4.4105787E-2,-1.0311726E-2,1.9389623E-3,-1.0992525E-2,-2.9454637E-2,-4.8337164E-4,-1.7285643E-2,2.1762233E-3,6.381056E-3,-4.528563E-3,2.3164066E-2],"categories":[],"categories_nodes":[],"categories_segments":[],"categories_sizes":[],"default_left":[0,0,0,0,0,0,0,0,0,0,0,0,0,0,0,0,0,0,0,0,0,0,0,0,0,0,0,0,0,0,0],"id":22,"left_children":[1,3,5,7,9,11,13,15,17,19,21,23,25,27,29,-1,-1,-1,-1,-1,-1,-1,-1,-1,-1,-1,-1,-1,-1,-1,-1],"loss_changes":[8.976107E1,4.0272255E1,2.77538E1,2.9212736E1,1.7988678E1,4.696308E0,1.652681E1,1.1401638E1,7.0570107E0,6.163307E0,8.0839E0,4.5830154E-1,4.546749E0,1.2794098E1,6.515584E0,0E0,0E0,0E0,0E0,0E0,0E0,0E0,0E0,0E0,0E0,0E0,0E0,0E0,0E0,0E0,0E0],"parents":[2147483647,0,0,1,1,2,2,3,3,4,4,5,5,6,6,7,7,8,8,9,9,10,10,11,11,12,12,13,13,14,14],"right_children":[2,4,6,8,10,12,14,16,18,20,22,24,26,28,30,-1,-1,-1,-1,-1,-1,-1,-1,-1,-1,-1,-1,-1,-1,-1,-1],"split_conditions":[1.5181829E3,1.5684401E3,1.2481268E3,3.5E0,1.3347117E3,1.0991357E3,2.6666667E0,3E0,2.777778E-1,5.8E1,1.9E1,1.5565781E3,1.6523749E3,6E0,1.9949425E3,-4.037145E-3,2.5252958E-3,7.2762812E-3,-1.7730324E-2,-2.1564916E-2,4.4105787E-2,-1.0311726E-2,1.9389623E-3,-1.0992525E-2,-2.9454637E-2,-4.8337164E-4,-1.7285643E-2,2.1762233E-3,6.381056E-3,-4.528563E-3,2.3164066E-2],"split_indices":[2,1,1,10,2,1,7,14,13,14,14,2,2,14,2,0,0,0,0,0,0,0,0,0,0,0,0,0,0,0,0],"split_type":[0,0,0,0,0,0,0,0,0,0,0,0,0,0,0,0,0,0,0,0,0,0,0,0,0,0,0,0,0,0,0],"sum_hessian":[1.2865278E4,4.692092E3,8.1731865E3,3.0524592E3,1.6396326E3,2.1500543E2,7.9581807E3,2.6992595E3,3.5319974E2,3.9886658E2,1.240766E3,5.028393E1,1.647215E2,7.2623105E3,6.958705E2,1.1591112E3,1.5401484E3,3.037E1,3.2282974E2,3.9615735E2,2.7092333E0,1.0874215E3,1.533444E2,5.3470554E0,4.493688E1,6.915746E1,9.556403E1,3.4236682E3,3.8386423E3,6.749222E2,2.0948261E1],"tree_param":{"num_deleted":"0","num_feature":"15","num_nodes":"31","size_leaf_vector":"1"}},{"base_weights":[-2.3003148E-3,-2.8343308E-1,2.7703273E-1,-4.7735348E-1,-1.4868324E-1,1.5576826E-1,4.8988774E-1,-6.3379586E-1,-3.982122E-1,-1.9390228E-1,-4.6251316E-2,7.167809E-2,2.3424208E-1,4.2972684E-1,6.4785045E-1,-3.4819167E-2,-2.775237E-2,-2.3488987E-2,-1.6821088E-2,-9.98634E-3,1.6974356E-2,-1.0022002E-2,-6.394152E-4,2.8003838E-3,1.9735562E-2,1.5179497E-2,8.118155E-3,1.9971335E-2,2.750407E-2,3.4710113E-2,2.1442777E-2],"categories":[],"categories_nodes":[],"categories_segments":[],"categories_sizes":[],"default_left":[0,0,0,0,0,0,0,0,0,0,0,0,0,0,0,0,0,0,0,0,0,0,0,0,0,0,0,0,0,0,0],"id":23,"left_children":[1,3,5,7,9,11,13,15,17,19,21,23,25,27,29,-1,-1,-1,-1,-1,-1,-1,-1,-1,-1,-1,-1,-1,-1,-1,-1],"loss_changes":[1.4261652E3,2.3644519E2,2.3505798E2,4.5686646E1,2.4733727E1,3.8288635E1,3.1136719E1,5.748596E0,1.0749939E1,1.1579956E1,8.445194E0,1.4169828E1,1.4915924E1,8.521454E0,8.937408E0,0E0,0E0,0E0,0E0,0E0,0E0,0E0,0E0,0E0,0E0,0E0,0E0,0E0,0E0,0E0,0E0],"parents":[2147483647,0,0,1,1,2,2,3,3,4,4,5,5,6,6,7,7,8,8,9,9,10,10,11,11,12,12,13,13,14,14],"right_children":[2,4,6,8,10,12,14,16,18,20,22,24,26,28,30,-1,-1,-1,-1,-1,-1,-1,-1,-1,-1,-1,-1,-1,-1,-1,-1],"split_conditions":[1.0062871E1,-1.6244142E2,2.0169473E2,-3.1451733E2,-3.6015865E1,9.17816E1,3.757978E2,-3.9132492E2,1E1,4.2E0,3.265306E-1,3.5E0,1.5270173E3,1E0,1.4784319E3,-3.4819167E-2,-2.775237E-2,-2.3488987E-2,-1.6821088E-2,-9.98634E-3,1.6974356E-2,-1.0022002E-2,-6.394152E-4,2.8003838E-3,1.9735562E-2,1.5179497E-2,8.118155E-3,1.9971335E-2,2.750407E-2,3.4710113E-2,2.1442777E-2],"split_indices":[0,0,0,0,0,0,0,0,12,10,13,10,2,13,2,0,0,0,0,0,0,0,0,0,0,0,0,0,0,0,0],"split_type":[0,0,0,0,0,0,0,0,0,0,0,0,0,0,0,0,0,0,0,0,0,0,0,0,0,0,0,0,0,0,0],"sum_hessian":[1.8158846E4,9.050261E3,9.108585E3,3.7094277E3,5.340833E3,5.803842E3,3.3047434E3,1.2437799E3,2.465648E3,3.7045496E3,1.6362834E3,2.8025874E3,3.0012544E3,2.3959531E3,9.087903E2,6.886302E2,5.5514966E2,1.1393802E3,1.3262676E3,3.6651523E3,3.939721E1,2.9090057E2,1.3453829E3,2.6740425E3,1.2854504E2,1.5258811E3,1.4753733E3,1.9175214E3,4.784317E2,7.4824854E2,1.6054176E2],"tree_param":{"num_deleted":"0","num_feature":"15","num_nodes":"31","size_leaf_vector":"1"}},{"base_weights":[2.1057092E-3,3.3399287E-1,-2.4545272E-1,6.863415E-1,2.3640627E-1,-1.1711657E-1,-4.1370976E-1,9.3681085E-1,5.981803E-1,3.6635175E-1,1.4688568E-1,-4.015154E-2,-1.828529E-1,-3.6375195E-1,-5.527936E-1,5.308045E-2,4.2487297E-2,3.3661988E-2,2.4033299E-2,2.1809094E-2,1.3992284E-2,1.1583435E-2,3.816029E-3,-9.416467E-4,-9.972356E-3,-9.881469E-3,-1.2326095E-3,-1.1412774E-2,-1.895382E-2,-1.201158E-2,-2.7841974E-2],"categories":[],"categories_nodes":[],"categories_segments":[],"categories_sizes":[],"default_left":[0,0,0,0,0,0,0,0,0,0,0,0,0,0,0,0,0,0,0,0,0,0,0,0,0,0,0,0,0,0,0],"id":24,"left_children":[1,3,5,7,9,11,13,15,17,19,21,23,25,27,29,-1,-1,-1,-1,-1,-1,-1,-1,-1,-1,-1,-1,-1,-1,-1,-1],"loss_changes":[1.2097936E3,2.1614484E2,1.8206558E2,2.9556702E1,5.727185E1,2.420623E1,2.5152588E1,2.9369202E0,8.59903E0,1.2016449E1,1.7448826E1,7.4874544E0,6.0284576E0,5.493927E0,1.083252E0,0E0,0E0,0E0,0E0,0E0,0E0,0E0,0E0,0E0,0E0,0E0,0E0,0E0,0E0,0E0,0E0],"parents":[2147483647,0,0,1,1,2,2,3,3,4,4,5,5,6,6,7,7,8,8,9,9,10,10,11,11,12,12,13,13,14,14],"right_children":[2,4,6,8,10,12,14,16,18,20,22,24,26,28,30,-1,-1,-1,-1,-1,-1,-1,-1,-1,-1,-1,-1,-1,-1,-1,-1],"split_conditions":[-4.8934895E1,-2.9979437E2,1.3220535E2,-4.898871E2,-1.6771516E2,2.9032774E1,3.2060345E2,-6.035221E2,6E0,6E0,1E1,7.083333E-1,7.777778E-1,4.6551725E-1,4.1358024E-1,5.308045E-2,4.2487297E-2,3.3661988E-2,2.4033299E-2,2.1809094E-2,1.3992284E-2,1.1583435E-2,3.816029E-3,-9.416467E-4,-9.972356E-3,-9.881469E-3,-1.2326095E-3,-1.1412774E-2,-1.895382E-2,-1.201158E-2,-2.7841974E-2],"split_indices":[0,0,0,0,0,0,0,0,14,14,12,13,5,13,13,0,0,0,0,0,0,0,0,0,0,0,0,0,0,0,0],"split_type":[0,0,0,0,0,0,0,0,0,0,0,0,0,0,0,0,0,0,0,0,0,0,0,0,0,0,0,0,0,0,0],"sum_hessian":[1.4722588E4,6.28983E3,8.432758E3,1.3628949E3,4.926935E3,4.784858E3,3.6479001E3,3.523186E2,1.0105763E3,2.0084438E3,2.9184912E3,2.2049185E3,2.5799392E3,2.6865342E3,9.61366E2,1.401851E2,2.121335E2,6.137983E2,3.9677805E2,1.1091027E3,8.993412E2,1.324654E3,1.5938372E3,1.9456495E3,2.59269E2,2.3593213E3,2.2061804E2,2.745861E2,2.411948E3,1.3056599E1,9.483094E2],"tree_param":{"num_deleted":"0","num_feature":"15","num_nodes":"31","size_leaf_vector":"1"}},{"base_weights":[2.0421005E-3,3.0119298E-2,-2.2043724E-1,-2.3834104E-2,8.65463E-2,-1.6237107E-1,-3.8479242E-1,-8.940737E-2,1.295554E-2,9.734393E-2,-2.5591645E-1,-2.9907113E-1,-1.01410285E-1,-4.0243325E-1,2.2566405E-1,-2.5993166E-3,-1.4216194E-2,-8.460065E-3,2.3600797E-3,7.2355564E-3,2.5966838E-3,-2.8779649E-3,-1.6707877E-2,2.5569745E-3,-1.6219337E-2,-2.4611403E-3,-1.2493591E-2,-1.7430186E-2,-2.6955714E-2,5.782575E-2,-6.0974862E-3],"categories":[],"categories_nodes":[],"categories_segments":[],"categories_sizes":[],"default_left":[0,0,0,0,0,0,0,0,0,0,0,0,0,0,0,0,0,0,0,0,0,0,0,0,0,0,0,0,0,0,0],"id":25,"left_children":[1,3,5,7,9,11,13,15,17,19,21,23,25,27,29,-1,-1,-1,-1,-1,-1,-1,-1,-1,-1,-1,-1,-1,-1,-1,-1],"loss_changes":[8.0066925E1,3.4651566E1,1.3645226E1,1.4038896E1,2.059692E1,8.828808E0,4.121071E0,1.5240431E1,2.3266752E1,1.1594753E1,2.624115E0,2.918871E0,5.6958246E0,2.4908829E0,3.7495275E0,0E0,0E0,0E0,0E0,0E0,0E0,0E0,0E0,0E0,0E0,0E0,0E0,0E0,0E0,0E0,0E0],"parents":[2147483647,0,0,1,1,2,2,3,3,4,4,5,5,6,6,7,7,8,8,9,9,10,10,11,11,12,12,13,13,14,14],"right_children":[2,4,6,8,10,12,14,16,18,20,22,24,26,28,30,-1,-1,-1,-1,-1,-1,-1,-1,-1,-1,-1,-1,-1,-1,-1,-1],"split_conditions":[2.5E0,6E0,8.888889E-1,1.5227977E3,8.783784E-1,1E0,1.5451992E3,1.6862751E3,1.4090499E3,1.2E0,1.2E0,1.1804014E3,2.2E0,4.25E0,3.3333334E-1,-2.5993166E-3,-1.4216194E-2,-8.460065E-3,2.3600797E-3,7.2355564E-3,2.5966838E-3,-2.8779649E-3,-1.6707877E-2,2.5569745E-3,-1.6219337E-2,-2.4611403E-3,-1.2493591E-2,-1.7430186E-2,-2.6955714E-2,5.782575E-2,-6.0974862E-3],"split_indices":[10,14,13,2,13,14,2,1,1,10,10,1,7,10,3,0,0,0,0,0,0,0,0,0,0,0,0,0,0,0,0],"split_type":[0,0,0,0,0,0,0,0,0,0,0,0,0,0,0,0,0,0,0,0,0,0,0,0,0,0,0,0,0,0,0],"sum_hessian":[1.2815624E4,1.1380281E4,1.4353424E3,5.8179507E3,5.5623306E3,1.0620953E3,3.7324713E2,2.090481E3,3.72747E3,5.3930083E3,1.6932236E2,3.263572E2,7.357381E2,3.6309525E2,1.015189E1,1.7548441E3,3.3563693E2,5.892536E2,3.1382163E3,2.6385574E3,2.7544512E3,4.838701E1,1.2093534E2,2.1932158E1,3.0442505E2,5.453627E2,1.903754E2,2.6304852E2,1.0004672E2,2.1275797E0,8.02431E0],"tree_param":{"num_deleted":"0","num_feature":"15","num_nodes":"31","size_leaf_vector":"1"}},{"base_weights":[-3.258007E-3,-2.4927036E-1,1.4025433E-1,-4.507699E-1,-1.9653563E-1,2.9237235E-1,-6.2724273E-3,-2.3963046E-1,-5.568155E-1,-5.565494E-2,-3.0135146E-1,1.501266E-1,4.7803327E-1,-2.5525403E-1,9.3697995E-2,-8.102554E-3,-2.3130998E-2,-2.3871364E-2,-3.4584723E-2,-6.565844E-3,6.191344E-3,-2.152346E-2,-1.2295574E-2,4.1663162E-3,2.1804735E-2,3.1695914E-2,2.0256033E-2,-7.881091E-3,-2.448268E-2,1.1275276E-2,-1.3325018E-3],"categories":[],"categories_nodes":[],"categories_segments":[],"categories_sizes":[],"default_left":[0,0,0,0,0,0,0,0,0,0,0,0,0,0,0,0,0,0,0,0,0,0,0,0,0,0,0,0,0,0,0],"id":26,"left_children":[1,3,5,7,9,11,13,15,17,19,21,23,25,27,29,-1,-1,-1,-1,-1,-1,-1,-1,-1,-1,-1,-1,-1,-1,-1,-1],"loss_changes":[6.365586E2,7.049713E1,2.5381393E2,3.0700409E1,7.775296E1,1.4747781E2,1.44419E2,7.9202175E0,9.477386E0,3.054404E1,2.150943E1,6.0420395E1,2.7284973E1,3.7962753E1,6.567662E1,0E0,0E0,0E0,0E0,0E0,0E0,0E0,0E0,0E0,0E0,0E0,0E0,0E0,0E0,0E0,0E0],"parents":[2147483647,0,0,1,1,2,2,3,3,4,4,5,5,6,6,7,7,8,8,9,9,10,10,11,11,12,12,13,13,14,14],"right_children":[2,4,6,8,10,12,14,16,18,20,22,24,26,28,30,-1,-1,-1,-1,-1,-1,-1,-1,-1,-1,-1,-1,-1,-1,-1,-1],"split_conditions":[5E-1,1.3740668E3,1.5270173E3,1.4456425E3,1.6545743E3,1.5663615E3,1.6104502E3,3.2E0,1.6698698E3,1.5749966E3,1.5663615E3,3.2E0,1.3610933E3,1.6880806E3,1.6925679E3,-8.102554E-3,-2.3130998E-2,-2.3871364E-2,-3.4584723E-2,-6.565844E-3,6.191344E-3,-2.152346E-2,-1.2295574E-2,4.1663162E-3,2.1804735E-2,3.1695914E-2,2.0256033E-2,-7.881091E-3,-2.448268E-2,1.1275276E-2,-1.3325018E-3],"split_indices":[13,1,2,2,2,1,1,8,2,1,1,10,2,2,2,0,0,0,0,0,0,0,0,0,0,0,0,0,0,0,0],"split_type":[0,0,0,0,0,0,0,0,0,0,0,0,0,0,0,0,0,0,0,0,0,0,0,0,0,0,0,0,0,0,0],"sum_hessian":[1.8027863E4,6.6417227E3,1.138614E4,1.3760988E3,5.265624E3,5.585995E3,5.8001445E3,4.611658E2,9.149329E2,2.2470044E3,3.0186196E3,3.1638174E3,2.422178E3,1.6612244E3,4.13892E3,3.4341605E2,1.1774977E2,5.7879834E2,3.3613455E2,1.5808523E3,6.6615216E2,9.0474194E2,2.1138777E3,2.5657632E3,5.980542E2,7.694415E2,1.6527365E3,1.1739307E3,4.8729367E2,1.9749943E3,2.1639258E3],"tree_param":{"num_deleted":"0","num_feature":"15","num_nodes":"31","size_leaf_vector":"1"}},{"base_weights":[-2.3604124E-3,3.1108078E-1,-2.532769E-1,6.255483E-1,2.1095003E-1,-1.25983E-1,-4.1553003E-1,8.691015E-1,5.343192E-1,2.9632938E-1,1.0094757E-1,-4.5072276E-2,-1.899481E-1,-3.6921558E-1,-5.440624E-1,4.9963858E-2,3.9917648E-2,2.7548691E-2,2.432013E-3,1.8989362E-2,1.1434122E-2,9.852525E-3,2.5410145E-3,2.4459306E-2,-2.6860917E-3,-7.161838E-3,-1.3059611E-2,-1.5288505E-2,-2.0197215E-2,-2.7631063E-2,-1.5505525E-2],"categories":[],"categories_nodes":[],"categories_segments":[],"categories_sizes":[],"default_left":[0,0,0,0,0,0,0,0,0,0,0,0,0,0,0,0,0,0,0,0,0,0,0,0,0,0,0,0,0,0,0],"id":27,"left_children":[1,3,5,7,9,11,13,15,17,19,21,23,25,27,29,-1,-1,-1,-1,-1,-1,-1,-1,-1,-1,-1,-1,-1,-1,-1,-1],"loss_changes":[1.1580781E3,2.0601215E2,1.688573E2,3.465558E1,4.6621323E1,2.371682E1,2.1199402E1,3.154419E0,9.295441E0,1.5698746E1,1.0453814E1,9.385454E0,8.481667E0,5.7061768E0,1.7311096E0,0E0,0E0,0E0,0E0,0E0,0E0,0E0,0E0,0E0,0E0,0E0,0E0,0E0,0E0,0E0,0E0],"parents":[2147483647,0,0,1,1,2,2,3,3,4,4,5,5,6,6,7,7,8,8,9,9,10,10,11,11,12,12,13,13,14,14],"right_children":[2,4,6,8,10,12,14,16,18,20,22,24,26,28,30,-1,-1,-1,-1,-1,-1,-1,-1,-1,-1,-1,-1,-1,-1,-1,-1],"split_conditions":[-4.2665134E1,-2.8145685E2,1.3220535E2,-4.6170975E2,-1.2663771E2,2.9032774E1,3.2060345E2,-6.035221E2,5.1282054E-1,9E0,3.5714287E-1,5.5555556E-2,5.972222E-1,1.8076302E2,1.694982E3,4.9963858E-2,3.9917648E-2,2.7548691E-2,2.432013E-3,1.8989362E-2,1.1434122E-2,9.852525E-3,2.5410145E-3,2.4459306E-2,-2.6860917E-3,-7.161838E-3,-1.3059611E-2,-1.5288505E-2,-2.0197215E-2,-2.7631063E-2,-1.5505525E-2],"split_indices":[0,0,0,0,0,0,0,0,13,12,13,5,13,0,2,0,0,0,0,0,0,0,0,0,0,0,0,0,0,0,0],"split_type":[0,0,0,0,0,0,0,0,0,0,0,0,0,0,0,0,0,0,0,0,0,0,0,0,0,0,0,0,0,0,0],"sum_hessian":[1.4722905E4,6.545777E3,8.1771284E3,1.579621E3,4.966156E3,4.5832036E3,3.593925E3,4.2812753E2,1.1514935E3,2.7950557E3,2.1711003E3,2.0243136E3,2.55889E3,2.6447917E3,9.4913336E2,1.4612921E2,2.8199832E2,1.1131864E3,3.830709E1,1.2492314E3,1.5458243E3,7.43242E2,1.4278583E3,3.1366056E1,1.9929475E3,1.5473665E3,1.0115234E3,9.390526E2,1.705739E3,9.143218E2,3.481159E1],"tree_param":{"num_deleted":"0","num_feature":"15","num_nodes":"31","size_leaf_vector":"1"}},{"base_weights":[5.1085902E-3,4.0996946E-2,-2.8104827E-1,-2.1686995E-1,5.3534042E-2,-2.0859806E-1,-3.960311E-1,-4.7038224E-1,-1.6418904E-1,7.2090946E-2,-1.3028492E-1,-2.4358645E-1,-5.143363E-3,-2.8027526E-1,-4.5604447E-1,-2.46205E-2,-1.0877784E-2,-1.2358276E-2,-2.3014818E-3,4.9033496E-3,-4.979931E-4,-4.9500186E-3,-1.8115863E-2,-8.932963E-3,-1.6650634E-2,8.654407E-3,-8.447266E-3,-9.409759E-3,-2.8727932E-2,-2.1096405E-2,-2.8133525E-2],"categories":[],"categories_nodes":[],"categories_segments":[],"categories_sizes":[],"default_left":[0,0,0,0,0,0,0,0,0,0,0,0,0,0,0,0,0,0,0,0,0,0,0,0,0,0,0,0,0,0,0],"id":28,"left_children":[1,3,5,7,9,11,13,15,17,19,21,23,25,27,29,-1,-1,-1,-1,-1,-1,-1,-1,-1,-1,-1,-1,-1,-1,-1,-1],"loss_changes":[1.3158815E2,3.681893E1,1.18125E1,6.9752293E0,3.7047768E1,6.249344E0,3.6987076E0,3.9587402E-1,4.290306E0,2.1022877E1,7.1941032E0,4.2905235E0,3.820665E0,5.0584145E0,1.0763855E0,0E0,0E0,0E0,0E0,0E0,0E0,0E0,0E0,0E0,0E0,0E0,0E0,0E0,0E0,0E0,0E0],"parents":[2147483647,0,0,1,1,2,2,3,3,4,4,5,5,6,6,7,7,8,8,9,9,10,10,11,11,12,12,13,13,14,14],"right_children":[2,4,6,8,10,12,14,16,18,20,22,24,26,28,30,-1,-1,-1,-1,-1,-1,-1,-1,-1,-1,-1,-1,-1,-1,-1,-1],"split_conditions":[2.5675003E2,-3.801015E2,8.783784E-1,-6.035221E2,2.5E0,2.2E1,1.6666666E0,1.6666666E0,2.9E1,9.17816E1,4.6666665E0,3.499337E2,1.4E1,4.403682E2,4E0,-2.46205E-2,-1.0877784E-2,-1.2358276E-2,-2.3014818E-3,4.9033496E-3,-4.979931E-4,-4.9500186E-3,-1.8115863E-2,-8.932963E-3,-1.6650634E-2,8.654407E-3,-8.447266E-3,-9.409759E-3,-2.8727932E-2,-2.1096405E-2,-2.8133525E-2],"split_indices":[0,0,13,0,10,14,10,10,12,0,10,0,11,0,10,0,0,0,0,0,0,0,0,0,0,0,0,0,0,0,0],"split_type":[0,0,0,0,0,0,0,0,0,0,0,0,0,0,0,0,0,0,0,0,0,0,0,0,0,0,0,0,0,0,0],"sum_hessian":[1.281112E4,1.1384225E4,1.4268955E3,5.2706616E2,1.0857158E4,8.7707104E2,5.498245E2,8.93182E1,4.3774796E2,9.862161E3,9.9499756E2,7.482041E2,1.2886694E2,1.8966403E2,3.6016046E2,8.128827E1,8.029933E0,2.5651828E2,1.8122966E2,7.490566E3,2.371595E3,8.7803955E2,1.1695801E2,4.352165E2,3.129876E2,6.168803E1,6.717891E1,1.4571112E2,4.395292E1,2.7661194E2,8.3548546E1],"tree_param":{"num_deleted":"0","num_feature":"15","num_nodes":"31","size_leaf_vector":"1"}},{"base_weights":[4.8780316E-4,-2.395962E-1,1.3990782E-1,-1.4744197E-1,-3.3067012E-1,2.9744944E-1,4.968181E-3,-9.236405E-2,-3.6847475E-1,-4.738681E-1,-2.5432223E-1,2.1020216E-1,4.723585E-1,-1.1935037E-1,1.1089308E-1,-5.3120515E-4,-8.088743E-3,-2.1545704E-2,-1.04678E-2,-2.9120818E-2,-1.8698106E-2,-1.6022159E-2,-8.091635E-3,2.3839597E-3,1.417129E-2,2.7636264E-2,1.8882427E-2,-1.5079672E-2,-2.3252305E-3,8.746377E-3,-1.2263547E-3],"categories":[],"categories_nodes":[],"categories_segments":[],"categories_sizes":[],"default_left":[0,0,0,0,0,0,0,0,0,0,0,0,0,0,0,0,0,0,0,0,0,0,0,0,0,0,0,0,0,0,0],"id":29,"left_children":[1,3,5,7,9,11,13,15,17,19,21,23,25,27,29,-1,-1,-1,-1,-1,-1,-1,-1,-1,-1,-1,-1,-1,-1,-1,-1],"loss_changes":[6.027433E2,5.547284E1,2.4217148E2,4.0018227E1,3.6246307E1,8.010452E1,8.08286E1,1.4948511E1,6.42675E0,1.23142395E1,1.32296295E1,4.1737976E1,1.3098724E1,3.7474655E1,2.8743439E1,0E0,0E0,0E0,0E0,0E0,0E0,0E0,0E0,0E0,0E0,0E0,0E0,0E0,0E0,0E0,0E0],"parents":[2147483647,0,0,1,1,2,2,3,3,4,4,5,5,6,6,7,7,8,8,9,9,10,10,11,11,12,12,13,13,14,14],"right_children":[2,4,6,8,10,12,14,16,18,20,22,24,26,28,30,-1,-1,-1,-1,-1,-1,-1,-1,-1,-1,-1,-1,-1,-1,-1,-1],"split_conditions":[5E-1,1.6568042E3,1.5119706E3,2.5E0,4.5E-1,8.076923E-1,5.4545456E-1,1.5311045E3,6.4E1,1.6666667E-1,3.265306E-1,4E-1,1.3610933E3,4.2857143E-1,1.7315145E3,-5.3120515E-4,-8.088743E-3,-2.1545704E-2,-1.04678E-2,-2.9120818E-2,-1.8698106E-2,-1.6022159E-2,-8.091635E-3,2.3839597E-3,1.417129E-2,2.7636264E-2,1.8882427E-2,-1.5079672E-2,-2.3252305E-3,8.746377E-3,-1.2263547E-3],"split_indices":[13,2,2,8,5,13,13,2,12,13,13,5,2,5,2,0,0,0,0,0,0,0,0,0,0,0,0,0,0,0,0],"split_type":[0,0,0,0,0,0,0,0,0,0,0,0,0,0,0,0,0,0,0,0,0,0,0,0,0,0,0,0,0,0,0],"sum_hessian":[1.8005107E4,6.6143496E3,1.1390758E4,3.288977E3,3.3253726E3,5.2547036E3,6.136054E3,2.6340347E3,6.549424E2,1.1545999E3,2.1707727E3,3.5073743E3,1.7473295E3,2.8228708E3,3.3131836E3,1.2101196E3,1.4239149E3,4.6914023E2,1.8580214E2,5.510511E2,6.035488E2,1.2643916E3,9.063811E2,1.0899143E3,2.41746E3,9.426237E2,8.047057E2,8.052309E2,2.0176399E3,2.2492952E3,1.0638883E3],"tree_param":{"num_deleted":"0","num_feature":"15","num_nodes":"31","size_leaf_vector":"1"}},{"base_weights":[1.1906378E-3,1.4093518E-1,-2.5901017E-1,7.837804E-2,4.786043E-1,-3.5898468E-1,-1.6161521E-1,-1.054744E-1,1.6612276E-1,5.254227E-1,1.2746836E-1,-2.4906427E-1,-4.1545928E-1,-1.9723621E-1,-3.189024E-2,2.6566058E-3,-8.541291E-3,1.9299963E-2,5.4711774E-3,2.2318592E-2,3.802132E-2,2.2296915E-2,-1.1825267E-3,-3.930885E-3,-1.4548883E-2,-2.3214458E-2,-1.6218366E-2,-4.577549E-3,-1.2819852E-2,2.5633774E-3,-9.8036155E-3],"categories":[],"categories_nodes":[],"categories_segments":[],"categories_sizes":[],"default_left":[0,0,0,0,0,0,0,0,0,0,0,0,0,0,0,0,0,0,0,0,0,0,0,0,0,0,0,0,0,0,0],"id":30,"left_children":[1,3,5,7,9,11,13,15,17,19,21,23,25,27,29,-1,-1,-1,-1,-1,-1,-1,-1,-1,-1,-1,-1,-1,-1,-1,-1],"loss_changes":[5.330385E2,2.0142351E2,4.981613E1,1.2984409E2,2.4436584E1,1.558194E1,1.1991264E1,2.6964554E1,6.787877E1,2.408667E1,8.513412E0,6.1215515E0,7.2673035E0,1.2711571E1,7.663014E0,0E0,0E0,0E0,0E0,0E0,0E0,0E0,0E0,0E0,0E0,0E0,0E0,0E0,0E0,0E0,0E0],"parents":[2147483647,0,0,1,1,2,2,3,3,4,4,5,5,6,6,7,7,8,8,9,9,10,10,11,11,12,12,13,13,14,14],"right_children":[2,4,6,8,10,12,14,16,18,20,22,24,26,28,30,-1,-1,-1,-1,-1,-1,-1,-1,-1,-1,-1,-1,-1,-1,-1,-1],"split_conditions":[5.102041E-1,2.6E0,1.5270173E3,1.5519281E3,3E0,7.352941E-1,1.7954932E3,3.5714287E-1,1.6666667E-1,4E0,1E-1,3E0,1.5E0,5.5E-1,7.1428573E-1,2.6566058E-3,-8.541291E-3,1.9299963E-2,5.4711774E-3,2.2318592E-2,3.802132E-2,2.2296915E-2,-1.1825267E-3,-3.930885E-3,-1.4548883E-2,-2.3214458E-2,-1.6218366E-2,-4.577549E-3,-1.2819852E-2,2.5633774E-3,-9.8036155E-3],"split_indices":[13,8,2,2,10,13,2,13,13,8,3,12,8,5,5,0,0,0,0,0,0,0,0,0,0,0,0,0,0,0,0],"split_type":[0,0,0,0,0,0,0,0,0,0,0,0,0,0,0,0,0,0,0,0,0,0,0,0,0,0,0,0,0,0,0],"sum_hessian":[1.4657359E4,9.536243E3,5.1211167E3,8.0467256E3,1.4895176E3,2.5257668E3,2.5953499E3,2.5995852E3,5.44714E3,1.3138413E3,1.7567621E2,8.590832E2,1.6666837E3,2.0358171E3,5.595326E2,7.5861926E2,1.840966E3,1.1154967E3,4.3316436E3,9.853032E2,3.2853815E2,5.5906727E1,1.1976948E2,1.7012451E2,6.889587E2,1.0823776E3,5.843061E2,7.3153925E2,1.304278E3,3.7186945E2,1.8766315E2],"tree_param":{"num_deleted":"0","num_feature":"15","num_nodes":"31","size_leaf_vector":"1"}},{"base_weights":[2.8517176E-3,2.934381E-2,-2.0989127E-1,4.7442432E-2,-9.8742425E-2,-3.6665085E-1,-1.556865E-1,-3.125025E-2,8.4576525E-2,-3.6117417E-1,-7.553526E-2,-3.7820342E-1,7.0996475E-1,-1.03351116E-1,-2.9607645E-1,5.343891E-4,-1.1128559E-2,4.854455E-3,-2.5154334E-3,2.4409553E-3,-2.2846771E-2,-3.1374153E-3,-2.1170584E-2,-1.5453531E-2,-2.663374E-2,3.741879E-3,4.8570883E-2,-1.3418834E-2,-3.5483532E-3,-1.7176619E-2,-8.694293E-3],"categories":[],"categories_nodes":[],"categories_segments":[],"categories_sizes":[],"default_left":[0,0,0,0,0,0,0,0,0,0,0,0,0,0,0,0,0,0,0,0,0,0,0,0,0,0,0,0,0,0,0],"id":31,"left_children":[1,3,5,7,9,11,13,15,17,19,21,23,25,27,29,-1,-1,-1,-1,-1,-1,-1,-1,-1,-1,-1,-1,-1,-1,-1,-1],"loss_changes":[7.2222694E1,2.6421291E1,1.20006485E1,2.9181318E1,8.567017E0,4.794174E0,7.729473E0,2.5694017E1,1.1455059E1,4.51328E0,5.7462296E0,3.6868286E0,6.264906E-1,4.100794E0,1.6002598E0,0E0,0E0,0E0,0E0,0E0,0E0,0E0,0E0,0E0,0E0,0E0,0E0,0E0,0E0,0E0,0E0],"parents":[2147483647,0,0,1,1,2,2,3,3,4,4,5,5,6,6,7,7,8,8,9,9,10,10,11,11,12,12,13,13,14,14],"right_children":[2,4,6,8,10,12,14,16,18,20,22,24,26,28,30,-1,-1,-1,-1,-1,-1,-1,-1,-1,-1,-1,-1,-1,-1,-1,-1],"split_conditions":[2.5E0,2.25E0,1.5E-1,1.5352838E3,1.1225239E3,1.4849685E3,2.2E0,1.6862751E3,2.6666667E0,1.2403224E3,5.4E0,4.8E0,4E0,1.219486E3,1.1E1,5.343891E-4,-1.1128559E-2,4.854455E-3,-2.5154334E-3,2.4409553E-3,-2.2846771E-2,-3.1374153E-3,-2.1170584E-2,-1.5453531E-2,-2.663374E-2,3.741879E-3,4.8570883E-2,-1.3418834E-2,-3.5483532E-3,-1.7176619E-2,-8.694293E-3],"split_indices":[10,8,6,2,1,2,7,1,7,2,8,10,11,2,14,0,0,0,0,0,0,0,0,0,0,0,0,0,0,0,0],"split_type":[0,0,0,0,0,0,0,0,0,0,0,0,0,0,0,0,0,0,0,0,0,0,0,0,0,0,0,0,0,0,0],"sum_hessian":[1.2812422E4,1.1394384E4,1.4180381E3,9.984238E3,1.4101462E3,3.6286697E2,1.0551711E3,3.201E3,6.783238E3,1.1338628E2,1.29676E3,3.596564E2,3.2105656E0,7.698996E2,2.852715E2,2.626261E3,5.7473895E2,6.2076665E3,5.7557153E2,2.1561754E1,9.1824524E1,1.2519232E3,4.483678E1,2.5053271E2,1.0912369E2,1.3113188E0,1.8992467E0,1.251027E2,6.447969E2,2.0416658E2,8.110494E1],"tree_param":{"num_deleted":"0","num_feature":"15","num_nodes":"31","size_leaf_vector":"1"}},{"base_weights":[-2.0428516E-3,-2.4891236E-1,2.508505E-1,-4.4276562E-1,-1.2839766E-1,1.1733816E-1,4.2460313E-1,-6.175169E-1,-3.7944987E-1,-1.812052E-1,-5.4761853E-2,1.0372579E-1,4.0281558E-1,3.0434126E-1,5.112483E-1,-3.42904E-2,-2.7633248E-2,-2.3153737E-2,-1.6071208E-2,2.5761425E-2,-9.292306E-3,2.0571431E-2,-3.1485246E-3,2.315225E-3,8.211785E-3,2.2757333E-2,-1.1987041E-2,1.4706659E-2,3.7096903E-2,2.3457495E-2,3.231419E-2],"categories":[],"categories_nodes":[],"categories_segments":[],"categories_sizes":[],"default_left":[0,0,0,0,0,0,0,0,0,0,0,0,0,0,0,0,0,0,0,0,0,0,0,0,0,0,0,0,0,0,0],"id":32,"left_children":[1,3,5,7,9,11,13,15,17,19,21,23,25,27,29,-1,-1,-1,-1,-1,-1,-1,-1,-1,-1,-1,-1,-1,-1,-1,-1],"loss_changes":[1.1241028E3,2.1279993E2,2.062779E2,3.840747E1,2.1842682E1,1.9508278E1,4.011078E1,3.727539E0,1.2303253E1,1.0672142E1,9.012972E0,1.6681538E1,7.7966537E0,7.021454E0,1.2456787E1,0E0,0E0,0E0,0E0,0E0,0E0,0E0,0E0,0E0,0E0,0E0,0E0,0E0,0E0,0E0,0E0],"parents":[2147483647,0,0,1,1,2,2,3,3,4,4,5,5,6,6,7,7,8,8,9,9,10,10,11,11,12,12,13,13,14,14],"right_children":[2,4,6,8,10,12,14,16,18,20,22,24,26,28,30,-1,-1,-1,-1,-1,-1,-1,-1,-1,-1,-1,-1,-1,-1,-1,-1],"split_conditions":[1.4151828E1,-1.6771516E2,1.7508337E2,-3.4783795E2,-5.318346E1,3.5E0,2.5273349E2,-4.4286212E2,1.1E1,5E-2,1.4285715E-1,8.9670166E1,4.2E0,4.6666665E0,4.403682E2,-3.42904E-2,-2.7633248E-2,-2.3153737E-2,-1.6071208E-2,2.5761425E-2,-9.292306E-3,2.0571431E-2,-3.1485246E-3,2.315225E-3,8.211785E-3,2.2757333E-2,-1.1987041E-2,1.4706659E-2,3.7096903E-2,2.3457495E-2,3.231419E-2],"split_indices":[0,0,0,0,0,10,0,0,11,6,6,0,8,10,0,0,0,0,0,0,0,0,0,0,0,0,0,0,0,0,0],"split_type":[0,0,0,0,0,0,0,0,0,0,0,0,0,0,0,0,0,0,0,0,0,0,0,0,0,0,0,0,0,0,0],"sum_hessian":[1.8003334E4,9.110176E3,8.893158E3,3.4914114E3,5.618764E3,5.029863E3,3.8632952E3,9.2623956E2,2.5651719E3,3.271304E3,2.3474602E3,4.8022417E3,2.2762112E2,1.6196971E3,2.243598E3,4.4649332E2,4.7974625E2,1.0479371E3,1.5172346E3,2.0926842E1,3.2503772E3,3.9768696E1,2.3076914E3,2.464912E3,2.3373296E3,2.1074898E2,1.687215E1,1.5844089E3,3.5288322E1,1.7137863E3,5.298116E2],"tree_param":{"num_deleted":"0","num_feature":"15","num_nodes":"31","size_leaf_vector":"1"}},{"base_weights":[2.1950655E-4,2.989496E-1,-2.3399131E-1,5.8088446E-1,2.0513928E-1,-1.1500198E-1,-3.9576697E-1,8.248248E-1,5.084888E-1,2.8226414E-1,1.09640054E-1,-4.181694E-2,-1.7834252E-1,-3.4939206E-1,-5.289029E-1,3.9508555E-2,4.9936984E-2,2.905787E-2,1.9555924E-2,1.3229935E-2,3.61245E-2,9.148793E-3,3.1066686E-3,-2.3776025E-3,3.053732E-2,-9.145828E-3,1.615951E-2,-1.3933124E-2,-1.926408E-2,-2.6739115E-2,1.0137026E-2],"categories":[],"categories_nodes":[],"categories_segments":[],"categories_sizes":[],"default_left":[0,0,0,0,0,0,0,0,0,0,0,0,0,0,0,0,0,0,0,0,0,0,0,0,0,0,0,0,0,0,0],"id":33,"left_children":[1,3,5,7,9,11,13,15,17,19,21,23,25,27,29,-1,-1,-1,-1,-1,-1,-1,-1,-1,-1,-1,-1,-1,-1,-1,-1],"loss_changes":[1.02209424E3,1.6967871E2,1.575799E2,2.7877441E1,3.5460358E1,2.1870605E1,2.1239014E1,1.4111328E0,1.0333557E1,2.0535156E1,7.4948463E0,8.228708E0,5.862213E0,6.4328003E0,3.9560852E0,0E0,0E0,0E0,0E0,0E0,0E0,0E0,0E0,0E0,0E0,0E0,0E0,0E0,0E0,0E0,0E0],"parents":[2147483647,0,0,1,1,2,2,3,3,4,4,5,5,6,6,7,7,8,8,9,9,10,10,11,11,12,12,13,13,14,14],"right_children":[2,4,6,8,10,12,14,16,18,20,22,24,26,28,30,-1,-1,-1,-1,-1,-1,-1,-1,-1,-1,-1,-1,-1,-1,-1,-1],"split_conditions":[-4.8934895E1,-2.8145685E2,1.3220535E2,-4.898871E2,-1.3160593E2,2.9032774E1,3.2060345E2,1.24E2,6E0,4.2E0,7E0,4.75E0,4.5E0,1.7790955E2,3E0,3.9508555E-2,4.9936984E-2,2.905787E-2,1.9555924E-2,1.3229935E-2,3.61245E-2,9.148793E-3,3.1066686E-3,-2.3776025E-3,3.053732E-2,-9.145828E-3,1.615951E-2,-1.3933124E-2,-1.926408E-2,-2.6739115E-2,1.0137026E-2],"split_indices":[0,0,0,0,0,0,0,11,14,8,12,8,8,0,8,0,0,0,0,0,0,0,0,0,0,0,0,0,0,0,0],"split_type":[0,0,0,0,0,0,0,0,0,0,0,0,0,0,0,0,0,0,0,0,0,0,0,0,0,0,0,0,0,0,0],"sum_hessian":[1.46064795E4,6.418968E3,8.187511E3,1.601294E3,4.8176743E3,4.7185967E3,3.4689146E3,3.6408847E2,1.2372054E3,2.6641553E3,2.1535188E3,2.189946E3,2.5286506E3,2.5754417E3,8.934731E2,3.0821747E2,5.5871014E1,7.616725E2,4.755329E2,2.5629116E3,1.0124375E2,8.4548956E2,1.3080292E3,2.1717861E3,1.8159805E1,2.506427E3,2.22236E1,8.698812E2,1.7055604E3,8.8661743E2,6.8556957E0],"tree_param":{"num_deleted":"0","num_feature":"15","num_nodes":"31","size_leaf_vector":"1"}},{"base_weights":[2.45219E-3,3.4933526E-2,-2.5364316E-1,-2.745712E-1,4.849003E-2,-1.7988852E-1,-3.8006312E-1,-4.1618055E-1,-1.4765067E-1,6.38903E-2,-1.0944471E-1,-2.0257571E-1,3.0716154E-1,-3.944987E-1,3.5358682E-1,-2.2079473E-2,-5.3474694E-3,-1.3799423E-2,-2.603941E-3,1.7004351E-4,4.6225223E-3,-2.8878797E-3,-1.3887932E-2,-1.2234754E-2,-5.15845E-3,3.9176177E-3,3.9455194E-2,-2.1507205E-2,-1.3181801E-2,4.358703E-2,-4.568704E-3],"categories":[],"categories_nodes":[],"categories_segments":[],"categories_sizes":[],"default_left":[0,0,0,0,0,0,0,0,0,0,0,0,0,0,0,0,0,0,0,0,0,0,0,0,0,0,0,0,0,0,0],"id":34,"left_children":[1,3,5,7,9,11,13,15,17,19,21,23,25,27,29,-1,-1,-1,-1,-1,-1,-1,-1,-1,-1,-1,-1,-1,-1,-1,-1],"loss_changes":[1.064155E2,4.764788E1,1.3357651E1,8.503616E0,2.6463335E1,1.0131752E1,5.748802E0,1.718216E0,3.0870495E0,1.7122791E1,8.39469E0,3.622963E0,4.4545717E0,2.3117447E0,2.5576434E0,0E0,0E0,0E0,0E0,0E0,0E0,0E0,0E0,0E0,0E0,0E0,0E0,0E0,0E0,0E0,0E0],"parents":[2147483647,0,0,1,1,2,2,3,3,4,4,5,5,6,6,7,7,8,8,9,9,10,10,11,11,12,12,13,13,14,14],"right_children":[2,4,6,8,10,12,14,16,18,20,22,24,26,28,30,-1,-1,-1,-1,-1,-1,-1,-1,-1,-1,-1,-1,-1,-1,-1,-1],"split_conditions":[2.5273349E2,-3.9132492E2,8.783784E-1,-4.898871E2,2.5E0,4.9E1,1.7389065E3,1.6E0,1.5E1,3E0,2.2E0,5E-1,3.4201428E2,1.4531438E3,8.333333E-1,-2.2079473E-2,-5.3474694E-3,-1.3799423E-2,-2.603941E-3,1.7004351E-4,4.6225223E-3,-2.8878797E-3,-1.3887932E-2,-1.2234754E-2,-5.15845E-3,3.9176177E-3,3.9455194E-2,-2.1507205E-2,-1.3181801E-2,4.358703E-2,-4.568704E-3],"split_indices":[0,0,13,0,10,14,2,7,11,14,7,4,0,2,3,0,0,0,0,0,0,0,0,0,0,0,0,0,0,0,0],"split_type":[0,0,0,0,0,0,0,0,0,0,0,0,0,0,0,0,0,0,0,0,0,0,0,0,0,0,0,0,0,0,0],"sum_hessian":[1.2790845E4,1.1351912E4,1.4389332E3,4.7554828E2,1.0876363E4,9.102863E2,5.286469E2,2.2369048E2,2.518578E2,9.910575E3,9.6578845E2,8.703298E2,3.9956596E1,5.188991E2,9.747783E0,2.0631033E2,1.7380138E1,1.06695274E2,1.4516252E2,3.1788967E3,6.731678E3,7.399134E2,2.2587506E2,6.1028564E2,2.600441E2,2.7881855E1,1.2074741E1,4.060178E2,1.12881325E2,4.060371E0,5.687412E0],"tree_param":{"num_deleted":"0","num_feature":"15","num_nodes":"31","size_leaf_vector":"1"}},{"base_weights":[-1.8361333E-3,-2.4101728E-1,2.465649E-1,-4.3175825E-1,-1.2466413E-1,1.20842084E-1,4.0741882E-1,-6.0963523E-1,-3.6768243E-1,-1.8904714E-1,-6.9707714E-2,1.1322791E-1,6.041649E-1,3.4635916E-1,5.6788015E-1,-3.0716944E-2,4.0296596E-2,-2.1655919E-2,-1.6009515E-2,-1.214182E-2,-7.228066E-3,-3.7435913E-3,3.268901E-2,2.9206981E-3,8.482681E-3,3.512005E-2,1.5649727E-2,1.654446E-2,2.666375E-2,2.8989969E-2,4.710376E-3],"categories":[],"categories_nodes":[],"categories_segments":[],"categories_sizes":[],"default_left":[0,0,0,0,0,0,0,0,0,0,0,0,0,0,0,0,0,0,0,0,0,0,0,0,0,0,0,0,0,0,0],"id":35,"left_children":[1,3,5,7,9,11,13,15,17,19,21,23,25,27,29,-1,-1,-1,-1,-1,-1,-1,-1,-1,-1,-1,-1,-1,-1,-1,-1],"loss_changes":[1.0655112E3,2.027168E2,1.7786176E2,3.922644E1,2.0070946E1,1.810904E1,3.7613342E1,6.5882874E0,7.7771606E0,6.2183075E0,1.1496222E1,1.5034046E1,1.9647846E0,7.9140015E0,5.9420166E0,0E0,0E0,0E0,0E0,0E0,0E0,0E0,0E0,0E0,0E0,0E0,0E0,0E0,0E0,0E0,0E0],"parents":[2147483647,0,0,1,1,2,2,3,3,4,4,5,5,6,6,7,7,8,8,9,9,10,10,11,11,12,12,13,13,14,14],"right_children":[2,4,6,8,10,12,14,16,18,20,22,24,26,28,30,-1,-1,-1,-1,-1,-1,-1,-1,-1,-1,-1,-1,-1,-1,-1,-1],"split_conditions":[1.6482029E1,-1.6771516E2,1.7508337E2,-3.4783795E2,-7.3261246E1,5E0,3.499337E2,4.2E0,1.3E1,3.888889E-1,5.5E0,8.9670166E1,9.5E1,3.5E0,1.7072837E3,-3.0716944E-2,4.0296596E-2,-2.1655919E-2,-1.6009515E-2,-1.214182E-2,-7.228066E-3,-3.7435913E-3,3.268901E-2,2.9206981E-3,8.482681E-3,3.512005E-2,1.5649727E-2,1.654446E-2,2.666375E-2,2.8989969E-2,4.710376E-3],"split_indices":[0,0,0,0,0,10,0,10,11,13,10,0,11,10,2,0,0,0,0,0,0,0,0,0,0,0,0,0,0,0,0],"split_type":[0,0,0,0,0,0,0,0,0,0,0,0,0,0,0,0,0,0,0,0,0,0,0,0,0,0,0,0,0,0,0],"sum_hessian":[1.7932021E4,9.135567E3,8.796454E3,3.4602966E3,5.675271E3,4.9383833E3,3.8580706E3,9.141277E2,2.546169E3,2.6123677E3,3.0629033E3,4.863007E3,7.5376595E1,2.796927E3,1.0611436E3,9.116644E2,2.463255E0,1.0673813E3,1.4787875E3,1.1805123E3,1.4318553E3,3.042086E3,2.0817291E1,2.4677656E3,2.3952412E3,5.5305202E1,2.0071396E1,2.5856936E3,2.1123328E2,1.0348784E3,2.626512E1],"tree_param":{"num_deleted":"0","num_feature":"15","num_nodes":"31","size_leaf_vector":"1"}},{"base_weights":[-6.3305045E-3,2.6133126E-1,-2.4439217E-1,5.7061785E-1,1.771422E-1,-1.2837698E-1,-3.922573E-1,7.483551E-1,4.7734308E-1,3.0515754E-1,1.01202846E-1,-1.3513395E-1,5.1067996E-1,-3.4749836E-1,-5.2196765E-1,3.8184922E-2,5.168801E-3,2.6620433E-2,1.8776309E-2,2.0068541E-2,1.1459964E-2,4.149376E-3,1.9653063E-2,-3.2114226E-3,-9.250712E-3,1.0222776E-2,3.5643805E-2,-1.4893298E-2,-1.9152096E-2,-2.6395831E-2,7.1508484E-3],"categories":[],"categories_nodes":[],"categories_segments":[],"categories_sizes":[],"default_left":[0,0,0,0,0,0,0,0,0,0,0,0,0,0,0,0,0,0,0,0,0,0,0,0,0,0,0,0,0,0,0],"id":36,"left_children":[1,3,5,7,9,11,13,15,17,19,21,23,25,27,29,-1,-1,-1,-1,-1,-1,-1,-1,-1,-1,-1,-1,-1,-1,-1,-1],"loss_changes":[9.2779224E2,1.7837045E2,1.3214856E2,2.3947968E1,5.2358215E1,1.8721962E1,1.9486084E1,4.8970337E0,5.206238E0,1.4568481E1,1.795782E1,1.5108986E1,2.6656284E0,4.3341675E0,3.5056305E0,0E0,0E0,0E0,0E0,0E0,0E0,0E0,0E0,0E0,0E0,0E0,0E0,0E0,0E0,0E0,0E0],"parents":[2147483647,0,0,1,1,2,2,3,3,4,4,5,5,6,6,7,7,8,8,9,9,10,10,11,11,12,12,13,13,14,14],"right_children":[2,4,6,8,10,12,14,16,18,20,22,24,26,28,30,-1,-1,-1,-1,-1,-1,-1,-1,-1,-1,-1,-1,-1,-1,-1,-1],"split_conditions":[-3.394568E1,-2.9304648E2,1.3220535E2,-4.4286212E2,-1.6771516E2,4.5E0,3.2060345E2,1.6147764E3,3.015873E-1,4E0,3.25E0,2.9032774E1,1.6666667E-1,1.8981233E2,3E0,3.8184922E-2,5.168801E-3,2.6620433E-2,1.8776309E-2,2.0068541E-2,1.1459964E-2,4.149376E-3,1.9653063E-2,-3.2114226E-3,-9.250712E-3,1.0222776E-2,3.5643805E-2,-1.4893298E-2,-1.9152096E-2,-2.6395831E-2,7.1508484E-3],"split_indices":[0,0,0,0,0,8,0,1,13,14,8,0,6,0,8,0,0,0,0,0,0,0,0,0,0,0,0,0,0,0,0],"split_type":[0,0,0,0,0,0,0,0,0,0,0,0,0,0,0,0,0,0,0,0,0,0,0,0,0,0,0,0,0,0,0],"sum_hessian":[1.4558453E4,6.8531255E3,7.705327E3,1.4650762E3,5.3880493E3,4.31872E3,3.3866067E3,5.0182108E2,9.632551E2,2.0050325E3,3.383017E3,4.274315E3,4.440534E1,2.5205305E3,8.6607623E2,4.8998093E2,1.1840144E1,6.224091E2,3.4084604E2,8.826856E2,1.1223468E3,3.18549E3,1.9752695E2,1.7660867E3,2.5082285E3,1.8459597E1,2.5945744E1,1.055721E3,1.4648094E3,8.5860126E2,7.4749575E0],"tree_param":{"num_deleted":"0","num_feature":"15","num_nodes":"31","size_leaf_vector":"1"}},{"base_weights":[5.943132E-3,4.0442545E-2,-2.3262186E-1,6.5380566E-2,-9.597563E-2,-3.0064496E-1,-1.00051984E-1,7.158846E-2,-3.0284277E-1,-3.197623E-1,-5.7149544E-2,-2.449391E-1,-4.6653253E-1,-2.3643037E-2,-1.76118E-1,4.21388E-3,-3.6648938E-3,-1.596648E-2,4.608469E-2,-1.0512984E-2,-2.5636582E-2,2.456705E-2,-3.2480292E-3,-1.278248E-2,1.5694743E-2,-2.3661658E-2,2.4777325E-2,-4.02492E-3,1.1568922E-2,1.8331377E-2,-9.761957E-3],"categories":[],"categories_nodes":[],"categories_segments":[],"categories_sizes":[],"default_left":[0,0,0,0,0,0,0,0,0,0,0,0,0,0,0,0,0,0,0,0,0,0,0,0,0,0,0,0,0,0,0],"id":37,"left_children":[1,3,5,7,9,11,13,15,17,19,21,23,25,27,29,-1,-1,-1,-1,-1,-1,-1,-1,-1,-1,-1,-1,-1,-1,-1,-1],"loss_changes":[1.04991684E2,3.7920887E1,1.4503937E1,2.1561497E1,1.4951275E1,9.724113E0,3.1811256E0,1.704435E1,3.4522276E0,5.2699394E0,6.3270836E0,4.8632927E0,1.952755E0,3.9995632E0,2.9201345E0,0E0,0E0,0E0,0E0,0E0,0E0,0E0,0E0,0E0,0E0,0E0,0E0,0E0,0E0,0E0,0E0],"parents":[2147483647,0,0,1,1,2,2,3,3,4,4,5,5,6,6,7,7,8,8,9,9,10,10,11,11,12,12,13,13,14,14],"right_children":[2,4,6,8,10,12,14,16,18,20,22,24,26,28,30,-1,-1,-1,-1,-1,-1,-1,-1,-1,-1,-1,-1,-1,-1,-1,-1],"split_conditions":[2.330374E2,2.25E0,1.4784319E3,3.5E0,-3.6961615E2,4.403682E2,7.5E-1,2.6666667E0,4.7E1,3.5E0,-3.5912323E2,4.9E1,5.6E1,2.5E1,2E-1,4.21388E-3,-3.6648938E-3,-1.596648E-2,4.608469E-2,-1.0512984E-2,-2.5636582E-2,2.456705E-2,-3.2480292E-3,-1.278248E-2,1.5694743E-2,-2.3661658E-2,2.4777325E-2,-4.02492E-3,1.1568922E-2,1.8331377E-2,-9.761957E-3],"split_indices":[0,8,2,10,0,0,13,7,14,8,0,14,14,14,8,0,0,0,0,0,0,0,0,0,0,0,0,0,0,0,0],"split_type":[0,0,0,0,0,0,0,0,0,0,0,0,0,0,0,0,0,0,0,0,0,0,0,0,0,0,0,0,0,0,0],"sum_hessian":[1.2754503E4,1.1143804E4,1.6106996E3,9.421939E3,1.7218635E3,1.0636572E3,5.4704236E2,9.2665205E3,1.5541908E2,2.5349982E2,1.4683636E3,7.981209E2,2.6553635E2,2.7355994E2,2.7348242E2,8.520697E3,7.4582385E2,1.5408377E2,1.3353186E0,1.6305948E2,9.044034E1,1.9748129E1,1.4486156E3,7.836443E2,1.4476622E1,2.6420435E2,1.3320074E0,2.2424936E2,4.9310577E1,8.688514E0,2.6479388E2],"tree_param":{"num_deleted":"0","num_feature":"15","num_nodes":"31","size_leaf_vector":"1"}},{"base_weights":[-5.3445017E-4,-2.3513101E-1,2.399669E-1,-4.138986E-1,-1.2695289E-1,1.3765451E-1,4.2706454E-1,-6.137768E-1,-3.4951097E-1,-1.7786884E-1,-6.43801E-2,1.7175372E-1,2.779704E-2,3.7073585E-1,5.773259E-1,-3.0947028E-2,3.9844163E-2,-2.1222165E-2,-1.5500161E-2,2.1623364E-2,-9.11143E-3,-3.472979E-3,3.4015726E-2,1.1940408E-2,6.034805E-3,3.8130977E-3,-3.7451384E-3,1.9808298E-2,1.0876303E-2,3.0869102E-2,1.8967984E-2],"categories":[],"categories_nodes":[],"categories_segments":[],"categories_sizes":[],"default_left":[0,0,0,0,0,0,0,0,0,0,0,0,0,0,0,0,0,0,0,0,0,0,0,0,0,0,0,0,0,0,0],"id":38,"left_children":[1,3,5,7,9,11,13,15,17,19,21,23,25,27,29,-1,-1,-1,-1,-1,-1,-1,-1,-1,-1,-1,-1,-1,-1,-1,-1],"loss_changes":[1.0104276E3,1.752663E2,1.6921945E2,4.3765137E1,1.7987183E1,2.1416504E1,2.624231E1,6.548523E0,7.527008E0,8.365532E0,9.640532E0,1.4910751E1,6.753531E0,8.782501E0,6.5098267E0,0E0,0E0,0E0,0E0,0E0,0E0,0E0,0E0,0E0,0E0,0E0,0E0,0E0,0E0,0E0,0E0],"parents":[2147483647,0,0,1,1,2,2,3,3,4,4,5,5,6,6,7,7,8,8,9,9,10,10,11,11,12,12,13,13,14,14],"right_children":[2,4,6,8,10,12,14,16,18,20,22,24,26,28,30,-1,-1,-1,-1,-1,-1,-1,-1,-1,-1,-1,-1,-1,-1,-1,-1],"split_conditions":[1.4151828E1,-1.6771516E2,2.0499872E2,-3.5912323E2,-5.7603153E1,1.6765618E3,3.757978E2,4.2E0,7E0,5.5555556E-2,5.25E0,4E0,3.3E1,2E1,1.4809176E3,-3.0947028E-2,3.9844163E-2,-2.1222165E-2,-1.5500161E-2,2.1623364E-2,-9.11143E-3,-3.472979E-3,3.4015726E-2,1.1940408E-2,6.034805E-3,3.8130977E-3,-3.7451384E-3,1.9808298E-2,1.0876303E-2,3.0869102E-2,1.8967984E-2],"split_indices":[0,0,0,0,0,2,0,10,11,6,10,14,11,14,2,0,0,0,0,0,0,0,0,0,0,0,0,0,0,0,0],"split_type":[0,0,0,0,0,0,0,0,0,0,0,0,0,0,0,0,0,0,0,0,0,0,0,0,0,0,0,0,0,0,0],"sum_hessian":[1.7906781E4,9.06468E3,8.842102E3,3.4163064E3,5.6483735E3,5.7173594E3,3.1247424E3,8.302944E2,2.586012E3,3.1132532E3,2.5351206E3,4.362651E3,1.3547085E3,2.2752744E3,8.49468E2,8.278254E2,2.4689891E0,8.8939624E2,1.6966157E3,2.1384336E1,3.091869E3,2.5188464E3,1.6274027E1,1.8843026E3,2.4783484E3,9.2055035E2,4.341581E2,1.9500201E3,3.2525433E2,7.047511E2,1.447169E2],"tree_param":{"num_deleted":"0","num_feature":"15","num_nodes":"31","size_leaf_vector":"1"}},{"base_weights":[-1.429855E-3,1.1950396E-1,-2.3316853E-1,2.659712E-1,-8.0275827E-4,-3.2369164E-1,-1.4717588E-1,1.216187E-1,4.298965E-1,-2.073386E-1,1.07550845E-1,-2.2554697E-1,-4.3855685E-1,-3.4697824E-3,-2.1357475E-1,2.18485E-3,1.8641664E-2,2.9815096E-2,1.67713E-2,-1.9654235E-2,-6.706532E-3,1.409069E-2,2.0360823E-3,-6.845452E-3,-1.6626393E-2,-2.5776112E-2,-1.809956E-2,5.6014103E-3,-3.6139141E-3,-1.6461013E-2,-6.2428466E-3],"categories":[],"categories_nodes":[],"categories_segments":[],"categories_sizes":[],"default_left":[0,0,0,0,0,0,0,0,0,0,0,0,0,0,0,0,0,0,0,0,0,0,0,0,0,0,0,0,0,0,0],"id":39,"left_children":[1,3,5,7,9,11,13,15,17,19,21,23,25,27,29,-1,-1,-1,-1,-1,-1,-1,-1,-1,-1,-1,-1,-1,-1,-1,-1],"loss_changes":[4.0477188E2,1.6723312E2,3.8505585E1,1.0122415E2,1.1665233E2,2.709195E1,2.425225E1,4.4560738E1,3.1299164E1,2.4337585E1,3.980511E1,1.2307388E1,6.3559875E0,6.3998456E0,1.7795174E1,0E0,0E0,0E0,0E0,0E0,0E0,0E0,0E0,0E0,0E0,0E0,0E0,0E0,0E0,0E0,0E0],"parents":[2147483647,0,0,1,1,2,2,3,3,4,4,5,5,6,6,7,7,8,8,9,9,10,10,11,11,12,12,13,13,14,14],"right_children":[2,4,6,8,10,12,14,16,18,20,22,24,26,28,30,-1,-1,-1,-1,-1,-1,-1,-1,-1,-1,-1,-1,-1,-1,-1,-1],"split_conditions":[5.1E-1,1.5007902E3,1.5270173E3,1.5586539E3,1.6333566E3,1.5792452E3,1.6739717E3,3E0,1.3601547E3,1.4671394E3,1.6063895E3,7.8846157E-1,1.4183743E3,6E0,1.6904631E3,2.18485E-3,1.8641664E-2,2.9815096E-2,1.67713E-2,-1.9654235E-2,-6.706532E-3,1.409069E-2,2.0360823E-3,-6.845452E-3,-1.6626393E-2,-2.5776112E-2,-1.809956E-2,5.6014103E-3,-3.6139141E-3,-1.6461013E-2,-6.2428466E-3],"split_indices":[13,1,2,2,2,1,1,8,1,2,1,13,2,12,2,0,0,0,0,0,0,0,0,0,0,0,0,0,0,0,0],"split_type":[0,0,0,0,0,0,0,0,0,0,0,0,0,0,0,0,0,0,0,0,0,0,0,0,0,0,0,0,0,0,0],"sum_hessian":[1.4441229E4,9.48955E3,4.9516777E3,4.2789443E3,5.210606E3,2.4109473E3,2.5407307E3,2.2762349E3,2.0027092E3,1.7926576E3,3.4179485E3,1.3016973E3,1.10925E3,8.032724E2,1.7374583E3,1.7382413E3,5.3799365E2,7.233139E2,1.2793953E3,5.0556042E2,1.2870972E3,9.465416E2,2.4714067E3,7.131249E2,5.8857245E2,5.503219E2,5.589281E2,2.996571E2,5.0361526E2,7.530854E2,9.8437286E2],"tree_param":{"num_deleted":"0","num_feature":"15","num_nodes":"31","size_leaf_vector":"1"}},{"base_weights":[7.865548E-3,4.0099826E-2,-2.1448588E-1,-3.550827E-1,4.8167232E-2,-1.7045024E-1,-4.037789E-1,-2.717767E-1,-5.241849E-1,6.3855655E-2,-1.1837212E-1,-1.353251E-1,-3.1646597E-1,1.005925E-1,-4.3342808E-1,-2.1261392E-2,-4.72953E-3,-2.6804576E-2,5.0354964E-4,8.6878875E-4,5.4849572E-3,-4.451159E-3,-1.7276837E-2,-7.095508E-3,1.3792905E-2,1.6354721E-2,-1.6948944E-2,2.7541772E-2,-1.6808014E-2,-2.3091188E-2,-2.4511728E-3],"categories":[],"categories_nodes":[],"categories_segments":[],"categories_sizes":[],"default_left":[0,0,0,0,0,0,0,0,0,0,0,0,0,0,0,0,0,0,0,0,0,0,0,0,0,0,0,0,0,0,0],"id":40,"left_children":[1,3,5,7,9,11,13,15,17,19,21,23,25,27,29,-1,-1,-1,-1,-1,-1,-1,-1,-1,-1,-1,-1,-1,-1,-1,-1],"loss_changes":[9.1606224E1,3.5604538E1,1.34205475E1,3.0051594E0,2.8591328E1,6.699486E0,4.5998917E0,4.08632E0,4.6765137E-1,2.130383E1,6.2510214E0,2.913124E0,3.7933388E0,3.6712568E0,3.1205177E0,0E0,0E0,0E0,0E0,0E0,0E0,0E0,0E0,0E0,0E0,0E0,0E0,0E0,0E0,0E0,0E0],"parents":[2147483647,0,0,1,1,2,2,3,3,4,4,5,5,6,6,7,7,8,8,9,9,10,10,11,11,12,12,13,13,14,14],"right_children":[2,4,6,8,10,12,14,16,18,20,22,24,26,28,30,-1,-1,-1,-1,-1,-1,-1,-1,-1,-1,-1,-1,-1,-1,-1,-1],"split_conditions":[2.330374E2,-4.898871E2,4.403682E2,4.4E1,2.5E0,2.6666667E0,1E0,1E1,9.285714E-1,6E0,4.6666665E0,7.2E1,4.0789473E-1,4.7600952E2,8.5714287E-1,-2.1261392E-2,-4.72953E-3,-2.6804576E-2,5.0354964E-4,8.6878875E-4,5.4849572E-3,-4.451159E-3,-1.7276837E-2,-7.095508E-3,1.3792905E-2,1.6354721E-2,-1.6948944E-2,2.7541772E-2,-1.6808014E-2,-2.3091188E-2,-2.4511728E-3],"split_indices":[0,0,0,11,10,10,10,11,6,14,10,14,13,0,5,0,0,0,0,0,0,0,0,0,0,0,0,0,0,0,0],"split_type":[0,0,0,0,0,0,0,0,0,0,0,0,0,0,0,0,0,0,0,0,0,0,0,0,0,0,0,0,0,0,0],"sum_hessian":[1.2778867E4,1.1161592E4,1.6172758E3,2.2243793E2,1.0939153E4,1.3135924E3,3.0368338E2,1.5077017E2,7.166776E1,9.997939E3,9.4121405E2,1.060426E3,2.531663E2,1.6727837E1,2.8695554E2,8.004645E1,7.0723724E1,7.0102005E1,1.5657567E0,4.9651963E3,5.032743E3,8.347579E2,1.0645621E2,1.0443557E3,1.6070328E1,8.099593E0,2.4506671E2,8.108096E0,8.6197405E0,2.670289E2,1.9926632E1],"tree_param":{"num_deleted":"0","num_feature":"15","num_nodes":"31","size_leaf_vector":"1"}},{"base_weights":[-5.8382307E-3,-2.1494E-1,2.3629501E-1,-3.9425042E-1,-1.08298875E-1,1.4584085E-1,4.3621665E-1,-5.916398E-1,-3.337722E-1,-1.8826127E-1,-5.9969645E-2,1.22183874E-1,2.9046535E-1,3.937789E-1,6.039181E-1,-2.9733991E-2,3.3260327E-2,-2.0233063E-2,-1.3975563E-2,-8.285972E-3,-1.4562889E-2,2.0924537E-2,-3.510277E-3,2.197302E-3,8.34649E-3,1.5105719E-2,-2.6860852E-2,1.8529532E-2,2.6436288E-2,3.0452663E-2,-2.6430095E-2],"categories":[],"categories_nodes":[],"categories_segments":[],"categories_sizes":[],"default_left":[0,0,0,0,0,0,0,0,0,0,0,0,0,0,0,0,0,0,0,0,0,0,0,0,0,0,0,0,0,0,0],"id":41,"left_children":[1,3,5,7,9,11,13,15,17,19,21,23,25,27,29,-1,-1,-1,-1,-1,-1,-1,-1,-1,-1,-1,-1,-1,-1,-1,-1],"loss_changes":[9.004446E2,1.8244186E2,1.4897153E2,4.2284485E1,2.3120255E1,1.9383026E1,1.8029388E1,3.5795288E0,1.0373627E1,5.1858444E0,1.8307812E1,1.7074875E1,7.848213E0,6.2228394E0,3.325653E0,0E0,0E0,0E0,0E0,0E0,0E0,0E0,0E0,0E0,0E0,0E0,0E0,0E0,0E0,0E0,0E0],"parents":[2147483647,0,0,1,1,2,2,3,3,4,4,5,5,6,6,7,7,8,8,9,9,10,10,11,11,12,12,13,13,14,14],"right_children":[2,4,6,8,10,12,14,16,18,20,22,24,26,28,30,-1,-1,-1,-1,-1,-1,-1,-1,-1,-1,-1,-1,-1,-1,-1,-1],"split_conditions":[2.9032774E1,-1.6244142E2,2.330374E2,-3.5912323E2,-8.001069E1,2.5E0,4.403682E2,4.2E0,1.4E1,1.8121615E3,1.5E-1,8.9670166E1,5.5E0,3.2E0,3E0,-2.9733991E-2,3.3260327E-2,-2.0233063E-2,-1.3975563E-2,-8.285972E-3,-1.4562889E-2,2.0924537E-2,-3.510277E-3,2.197302E-3,8.34649E-3,1.5105719E-2,-2.6860852E-2,1.8529532E-2,2.6436288E-2,3.0452663E-2,-2.6430095E-2],"split_indices":[0,0,0,0,0,10,0,10,11,2,6,0,8,10,8,0,0,0,0,0,0,0,0,0,0,0,0,0,0,0,0],"split_type":[0,0,0,0,0,0,0,0,0,0,0,0,0,0,0,0,0,0,0,0,0,0,0,0,0,0,0,0,0,0,0],"sum_hessian":[1.7782629E4,9.54224E3,8.240389E3,3.5576218E3,5.984618E3,5.6746387E3,2.5657498E3,8.3231665E2,2.7253052E3,2.253398E3,3.7312202E3,4.8784844E3,7.9615436E2,2.0502668E3,5.15483E2,8.308339E2,1.4827472E0,1.1788033E3,1.546502E3,1.8509154E3,4.024825E2,7.731614E1,3.653904E3,1.7756892E3,3.1027952E3,7.857308E2,1.0423586E1,1.7528215E3,2.9744537E2,5.1361633E2,1.866681E0],"tree_param":{"num_deleted":"0","num_feature":"15","num_nodes":"31","size_leaf_vector":"1"}},{"base_weights":[-3.5394167E-3,2.3951904E-1,-2.2171214E-1,5.360285E-1,1.6151588E-1,-1.0931859E-1,-3.615209E-1,7.4123925E-1,4.636454E-1,2.7324182E-1,9.239255E-2,-1.1494053E-1,5.2673393E-1,-2.940427E-1,-4.7241375E-1,4.042882E-2,3.154582E-2,2.6294127E-2,1.8122004E-2,1.773551E-2,9.553494E-3,3.8359647E-3,1.7137364E-2,-3.1831905E-3,-7.7181295E-3,3.990576E-3,4.3448467E-2,-1.5882796E-2,-1.0237839E-2,-1.99387E-2,-2.55994E-2],"categories":[],"categories_nodes":[],"categories_segments":[],"categories_sizes":[],"default_left":[0,0,0,0,0,0,0,0,0,0,0,0,0,0,0,0,0,0,0,0,0,0,0,0,0,0,0,0,0,0,0],"id":42,"left_children":[1,3,5,7,9,11,13,15,17,19,21,23,25,27,29,-1,-1,-1,-1,-1,-1,-1,-1,-1,-1,-1,-1,-1,-1,-1,-1],"loss_changes":[7.6789856E2,1.5833914E2,1.19871765E2,2.0841278E1,4.1867615E1,1.5192535E1,2.5305267E1,2.2401733E0,6.467209E0,1.38085785E1,1.3129269E1,8.47102E0,5.6288567E0,4.3974915E0,3.5397644E0,0E0,0E0,0E0,0E0,0E0,0E0,0E0,0E0,0E0,0E0,0E0,0E0,0E0,0E0,0E0,0E0],"parents":[2147483647,0,0,1,1,2,2,3,3,4,4,5,5,6,6,7,7,8,8,9,9,10,10,11,11,12,12,13,13,14,14],"right_children":[2,4,6,8,10,12,14,16,18,20,22,24,26,28,30,-1,-1,-1,-1,-1,-1,-1,-1,-1,-1,-1,-1,-1,-1,-1,-1],"split_conditions":[-3.6015865E1,-2.9979437E2,1.26963295E2,-4.898871E2,-1.6771516E2,4.75E0,2.656828E2,-5.497959E2,6E0,5E0,3.25E0,2.9032774E1,1.3529403E3,1.8450435E3,3.2060345E2,4.042882E-2,3.154582E-2,2.6294127E-2,1.8122004E-2,1.773551E-2,9.553494E-3,3.8359647E-3,1.7137364E-2,-3.1831905E-3,-7.7181295E-3,3.990576E-3,4.3448467E-2,-1.5882796E-2,-1.0237839E-2,-1.99387E-2,-2.55994E-2],"split_indices":[0,0,0,0,0,8,0,0,14,14,8,0,2,1,0,0,0,0,0,0,0,0,0,0,0,0,0,0,0,0,0],"split_type":[0,0,0,0,0,0,0,0,0,0,0,0,0,0,0,0,0,0,0,0,0,0,0,0,0,0,0,0,0,0,0],"sum_hessian":[1.4478802E4,6.8487524E3,7.630049E3,1.4252294E3,5.423523E3,4.2307173E3,3.3993315E3,3.692218E2,1.0560074E3,2.071824E3,3.3516992E3,4.1944624E3,3.6254726E1,2.1156267E3,1.2837048E3,2.2534813E2,1.4387367E2,6.5129266E2,4.047148E2,1.0387003E3,1.0331237E3,3.1554607E3,1.9623859E2,1.8242521E3,2.3702104E3,1.6257454E1,1.9997272E1,1.6711138E3,4.44513E2,4.525943E2,8.3111053E2],"tree_param":{"num_deleted":"0","num_feature":"15","num_nodes":"31","size_leaf_vector":"1"}},{"base_weights":[2.8418757E-3,2.6141586E-2,-1.9313522E-1,3.727198E-2,-1.5547213E-1,-1.4126639E-1,-3.45203E-1,8.8710375E-2,3.5483886E-3,-4.097431E-1,-1.2070686E-1,-2.6966593E-1,-8.494936E-2,-2.8650153E-1,-5.095088E-1,1.1998228E-3,6.6719176E-3,-1.8321589E-3,3.6570157E-3,-1.37878405E-2,-2.795741E-2,-2.9071944E-3,-1.2835959E-2,8.71637E-3,-1.4940755E-2,-1.2709869E-3,-8.329443E-3,1.4957721E-2,-1.578184E-2,-1.908717E-3,-2.696442E-2],"categories":[],"categories_nodes":[],"categories_segments":[],"categories_sizes":[],"default_left":[0,0,0,0,0,0,0,0,0,0,0,0,0,0,0,0,0,0,0,0,0,0,0,0,0,0,0,0,0,0,0],"id":43,"left_children":[1,3,5,7,9,11,13,15,17,19,21,23,25,27,29,-1,-1,-1,-1,-1,-1,-1,-1,-1,-1,-1,-1,-1,-1,-1,-1],"loss_changes":[5.8156506E1,2.301545E1,1.062566E1,1.860652E1,5.7628736E0,7.2863636E0,3.16716E0,1.2291328E1,1.8126781E1,1.4206209E0,4.9192104E0,4.0346165E0,3.4176335E0,4.4519043E0,1.2305355E0,0E0,0E0,0E0,0E0,0E0,0E0,0E0,0E0,0E0,0E0,0E0,0E0,0E0,0E0,0E0,0E0],"parents":[2147483647,0,0,1,1,2,2,3,3,4,4,5,5,6,6,7,7,8,8,9,9,10,10,11,11,12,12,13,13,14,14],"right_children":[2,4,6,8,10,12,14,16,18,20,22,24,26,28,30,-1,-1,-1,-1,-1,-1,-1,-1,-1,-1,-1,-1,-1,-1,-1,-1],"split_conditions":[2.5E0,3E0,8.888889E-1,5E-1,1.1225239E3,1E0,4.25E0,2.413793E-1,1.650232E3,1.4923896E3,2.25E0,1.1804014E3,5.972222E-1,1.2383145E3,2E0,1.1998228E-3,6.6719176E-3,-1.8321589E-3,3.6570157E-3,-1.37878405E-2,-2.795741E-2,-2.9071944E-3,-1.2835959E-2,8.71637E-3,-1.4940755E-2,-1.2709869E-3,-8.329443E-3,1.4957721E-2,-1.578184E-2,-1.908717E-3,-2.696442E-2],"split_indices":[10,8,13,13,1,14,10,13,2,2,9,1,13,1,11,0,0,0,0,0,0,0,0,0,0,0,0,0,0,0,0],"split_type":[0,0,0,0,0,0,0,0,0,0,0,0,0,0,0,0,0,0,0,0,0,0,0,0,0,0,0,0,0,0,0],"sum_hessian":[1.2734171E4,1.138185E4,1.3523212E3,1.0725331E4,6.565186E2,1.009813E3,3.425082E2,4.246515E3,6.478816E3,7.766871E1,5.788499E2,3.0672028E2,7.030927E2,2.5437234E2,8.813586E1,1.7361426E3,2.5103723E3,4.1072314E3,2.3715842E3,4.244753E1,3.522118E1,3.9745566E2,1.8139426E2,1.8589449E1,2.8813083E2,4.073638E2,2.9572888E2,1.1615631E1,2.4275671E2,5.3732405E0,8.276262E1],"tree_param":{"num_deleted":"0","num_feature":"15","num_nodes":"31","size_leaf_vector":"1"}},{"base_weights":[-4.7014174E-3,-2.3702623E-1,1.9907252E-1,-3.8957843E-1,-1.3109395E-1,1.2313436E-1,4.433873E-1,-5.704004E-1,-3.3375934E-1,-1.3440366E-1,6.962212E-1,7.900721E-2,2.4281089E-1,3.9983767E-1,5.9110755E-1,-2.8725777E-2,3.6314677E-2,-2.0079281E-2,-1.4369882E-2,-9.3226405E-3,-4.2271256E-3,-8.157293E-3,3.8759228E-2,2.5544174E-3,9.6173575E-3,1.4368183E-2,6.478645E-3,2.129229E-2,1.2190577E-2,3.127494E-2,1.9422928E-2],"categories":[],"categories_nodes":[],"categories_segments":[],"categories_sizes":[],"default_left":[0,0,0,0,0,0,0,0,0,0,0,0,0,0,0,0,0,0,0,0,0,0,0,0,0,0,0,0,0,0,0],"id":44,"left_children":[1,3,5,7,9,11,13,15,17,19,21,23,25,27,29,-1,-1,-1,-1,-1,-1,-1,-1,-1,-1,-1,-1,-1,-1,-1,-1],"loss_changes":[8.4344324E2,1.3447974E2,1.7603464E2,3.4239746E1,1.3550743E1,3.8226074E1,1.423941E1,4.703186E0,8.088562E0,1.2690239E1,1.4663181E0,1.6737686E1,9.802956E0,6.9607544E0,3.3130798E0,0E0,0E0,0E0,0E0,0E0,0E0,0E0,0E0,0E0,0E0,0E0,0E0,0E0,0E0,0E0,0E0],"parents":[2147483647,0,0,1,1,2,2,3,3,4,4,5,5,6,6,7,7,8,8,9,9,10,10,11,11,12,12,13,13,14,14],"right_children":[2,4,6,8,10,12,14,16,18,20,22,24,26,28,30,-1,-1,-1,-1,-1,-1,-1,-1,-1,-1,-1,-1,-1,-1,-1,-1],